{"learner":{"attributes":{"best_iteration":"499","best_ntree_limit":"500"},"feature_names":[],"feature_types":[],"gradient_booster":{"model":{"gbtree_model_param":{"num_trees":"500","size_leaf_vector":"0"},"tree_info":[0,0,0,0,0,0,0,0,0,0,0,0,0,0,0,0,0,0,0,0,0,0,0,0,0,0,0,0,0,0,0,0,0,0,0,0,0,0,0,0,0,0,0,0,0,0,0,0,0,0,0,0,0,0,0,0,0,0,0,0,0,0,0,0,0,0,0,0,0,0,0,0,0,0,0,0,0,0,0,0,0,0,0,0,0,0,0,0,0,0,0,0,0,0,0,0,0,0,0,0,0,0,0,0,0,0,0,0,0,0,0,0,0,0,0,0,0,0,0,0,0,0,0,0,0,0,0,0,0,0,0,0,0,0,0,0,0,0,0,0,0,0,0,0,0,0,0,0,0,0,0,0,0,0,0,0,0,0,0,0,0,0,0,0,0,0,0,0,0,0,0,0,0,0,0,0,0,0,0,0,0,0,0,0,0,0,0,0,0,0,0,0,0,0,0,0,0,0,0,0,0,0,0,0,0,0,0,0,0,0,0,0,0,0,0,0,0,0,0,0,0,0,0,0,0,0,0,0,0,0,0,0,0,0,0,0,0,0,0,0,0,0,0,0,0,0,0,0,0,0,0,0,0,0,0,0,0,0,0,0,0,0,0,0,0,0,0,0,0,0,0,0,0,0,0,0,0,0,0,0,0,0,0,0,0,0,0,0,0,0,0,0,0,0,0,0,0,0,0,0,0,0,0,0,0,0,0,0,0,0,0,0,0,0,0,0,0,0,0,0,0,0,0,0,0,0,0,0,0,0,0,0,0,0,0,0,0,0,0,0,0,0,0,0,0,0,0,0,0,0,0,0,0,0,0,0,0,0,0,0,0,0,0,0,0,0,0,0,0,0,0,0,0,0,0,0,0,0,0,0,0,0,0,0,0,0,0,0,0,0,0,0,0,0,0,0,0,0,0,0,0,0,0,0,0,0,0,0,0,0,0,0,0,0,0,0,0,0,0,0,0,0,0,0,0,0,0,0,0,0,0,0,0,0,0,0,0,0,0,0,0,0,0,0,0,0,0,0,0,0,0,0,0,0,0,0,0,0,0,0,0,0,0,0,0,0,0,0,0,0,0,0,0,0,0,0,0,0,0,0,0,0,0,0,0,0,0,0,0,0,0,0,0,0,0,0,0,0,0,0],"trees":[{"base_weights":[-1.054081E0,-1.0237659E0,-1.063172E0,-9.781868E-1,-1.0459318E0,-1.0529623E0,-1.066536E0,-9.245735E-1,-1.0233036E0,-1.0250016E0,-1.0549552E0,-1.0322924E0,-1.0610379E0],"categories":[],"categories_nodes":[],"categories_segments":[],"categories_sizes":[],"default_left":[true,true,true,true,true,true,false,false,false,false,false,false,false],"id":0,"left_children":[1,3,5,7,9,11,-1,-1,-1,-1,-1,-1,-1],"loss_changes":[5.7609375E1,4.863672E1,4.515625E0,3.7996094E1,5.1640625E0,5.6953125E0,0E0,0E0,0E0,0E0,0E0,0E0,0E0],"parents":[2147483647,0,0,1,1,2,2,3,3,4,4,5,5],"right_children":[2,4,6,8,10,12,-1,-1,-1,-1,-1,-1,-1],"split_conditions":[4.5703056E1,6.944435E1,6.450833E1,5.1593674E1,8.9570786E1,6.4172874E1,-3.199608E-2,-2.7737204E-2,-3.0699108E-2,-3.075005E-2,-3.164866E-2,-3.096877E-2,-3.1831138E-2],"split_indices":[6,7,6,8,7,7,0,0,0,0,0,0,0],"split_type":[0,0,0,0,0,0,0,0,0,0,0,0,0],"sum_hessian":[2.1295372E5,4.9155008E4,1.6379872E5,1.609811E4,3.30569E4,4.067169E4,1.2312702E5,7.3661978E3,8.731912E3,9.992821E3,2.3064078E4,1.1462232E4,2.9209459E4],"tree_param":{"num_deleted":"0","num_feature":"16","num_nodes":"13","size_leaf_vector":"0"}},{"base_weights":[-1.0267583E0,-9.9630487E-1,-1.035905E0,-9.5611286E-1,-1.0215961E0,-1.022762E0,-1.038591E0,-9.1006684E-1,-1.0018995E0,-1.0082126E0,-1.031751E0,-9.983395E-1,-1.0326436E0],"categories":[],"categories_nodes":[],"categories_segments":[],"categories_sizes":[],"default_left":[true,true,true,true,true,true,false,false,false,false,false,false,false],"id":1,"left_children":[1,3,5,7,9,11,-1,-1,-1,-1,-1,-1,-1],"loss_changes":[5.80625E1,4.884375E1,4.703125E0,3.9029297E1,3.046875E0,5.6621094E0,0E0,0E0,0E0,0E0,0E0,0E0,0E0],"parents":[2147483647,0,0,1,1,2,2,3,3,4,4,5,5],"right_children":[2,4,6,8,10,12,-1,-1,-1,-1,-1,-1,-1],"split_conditions":[4.571004E1,7.518976E1,5.8689987E1,5.462033E1,1.1708215E2,6.491598E1,-3.115773E-2,-2.7302004E-2,-3.0056983E-2,-3.0246377E-2,-3.095253E-2,-2.9950183E-2,-3.0979306E-2],"split_indices":[6,7,6,8,12,7,0,0,0,0,0,0,0],"split_type":[0,0,0,0,0,0,0,0,0,0,0,0,0],"sum_hessian":[2.120751E5,4.900982E4,1.6306527E5,1.8943803E4,3.0066018E4,2.7735223E4,1.3533005E5,9.455553E3,9.488251E3,1.301421E4,1.7051807E4,8.018755E3,1.9716469E4],"tree_param":{"num_deleted":"0","num_feature":"16","num_nodes":"13","size_leaf_vector":"0"}},{"base_weights":[-1.0011886E0,-9.704983E-1,-1.0104163E0,-9.218107E-1,-9.916762E-1,-9.971336E-1,-1.0131309E0,-8.667863E-1,-9.6876144E-1,-9.7008467E-1,-1.0021595E0,-9.725023E-1,-1.0071148E0],"categories":[],"categories_nodes":[],"categories_segments":[],"categories_sizes":[],"default_left":[true,true,true,true,true,true,false,false,false,false,false,false,false],"id":2,"left_children":[1,3,5,7,9,11,-1,-1,-1,-1,-1,-1,-1],"loss_changes":[5.878125E1,4.9402344E1,4.84375E0,3.7410156E1,6.7226562E0,5.8027344E0,0E0,0E0,0E0,0E0,0E0,0E0,0E0],"parents":[2147483647,0,0,1,1,2,2,3,3,4,4,5,5],"right_children":[2,4,6,8,10,12,-1,-1,-1,-1,-1,-1,-1],"split_conditions":[4.5703896E1,6.700105E1,5.868143E1,5.1593674E1,8.9571E1,6.491598E1,-3.0393926E-2,-2.6003588E-2,-2.9062843E-2,-2.910254E-2,-3.0064784E-2,-2.9175067E-2,-3.0213442E-2],"split_indices":[6,7,6,8,7,7,0,0,0,0,0,0,0],"split_type":[0,0,0,0,0,0,0,0,0,0,0,0,0],"sum_hessian":[2.109831E5,4.8796605E4,1.6218648E5,1.4804914E4,3.399169E4,2.7584328E4,1.3460216E5,6.825349E3,7.9795645E3,1.1140361E4,2.285133E4,7.9828135E3,1.9601516E4],"tree_param":{"num_deleted":"0","num_feature":"16","num_nodes":"13","size_leaf_vector":"0"}},{"base_weights":[-9.772E-1,-9.462135E-1,-9.865303E-1,-9.000003E-1,-9.6883315E-1,-9.758916E-1,-9.9004126E-1,-8.5073423E-1,-9.498174E-1,-9.531554E-1,-9.8182493E-1,-9.544621E-1,-9.8429334E-1],"categories":[],"categories_nodes":[],"categories_segments":[],"categories_sizes":[],"default_left":[true,true,true,true,true,true,false,false,false,false,false,false,false],"id":3,"left_children":[1,3,5,7,9,11,-1,-1,-1,-1,-1,-1,-1],"loss_changes":[5.9703125E1,4.9882812E1,5.0625E0,3.8385742E1,5.701172E0,6.2734375E0,0E0,0E0,0E0,0E0,0E0,0E0,0E0],"parents":[2147483647,0,0,1,1,2,2,3,3,4,4,5,5],"right_children":[2,4,6,8,10,12,-1,-1,-1,-1,-1,-1,-1],"split_conditions":[4.570481E1,6.944435E1,6.450893E1,5.4612915E1,1.1716406E2,6.417423E1,-2.9701237E-2,-2.5522027E-2,-2.8494522E-2,-2.8594662E-2,-2.9454747E-2,-2.8633863E-2,-2.95288E-2],"split_indices":[6,7,6,8,12,7,0,0,0,0,0,0,0],"split_type":[0,0,0,0,0,0,0,0,0,0,0,0,0],"sum_hessian":[2.0969698E5,4.855286E4,1.6114412E5,1.5968682E4,3.2584178E4,4.005397E4,1.21090164E5,8.037843E3,7.9308394E3,1.4799454E4,1.7784723E4,1.1313148E4,2.874082E4],"tree_param":{"num_deleted":"0","num_feature":"16","num_nodes":"13","size_leaf_vector":"0"}},{"base_weights":[-9.546418E-1,-9.2328954E-1,-9.6409565E-1,-8.822338E-1,-9.49301E-1,-9.533029E-1,-9.6765983E-1,-8.3560973E-1,-9.29009E-1,-9.339436E-1,-9.59375E-1,-9.330339E-1,-9.6243876E-1],"categories":[],"categories_nodes":[],"categories_segments":[],"categories_sizes":[],"default_left":[true,true,true,true,true,true,false,false,false,false,false,false,false],"id":4,"left_children":[1,3,5,7,9,11,-1,-1,-1,-1,-1,-1,-1],"loss_changes":[6.084375E1,5.070703E1,5.234375E0,4.008008E1,3.6738281E0,6.46875E0,0E0,0E0,0E0,0E0,0E0,0E0,0E0],"parents":[2147483647,0,0,1,1,2,2,3,3,4,4,5,5],"right_children":[2,4,6,8,10,12,-1,-1,-1,-1,-1,-1,-1],"split_conditions":[4.5703056E1,7.519023E1,6.4508804E1,5.462033E1,9.993582E1,6.727269E1,-2.9029794E-2,-2.506829E-2,-2.787027E-2,-2.8018309E-2,-2.878125E-2,-2.7991015E-2,-2.8873162E-2],"split_indices":[6,7,6,8,7,7,0,0,0,0,0,0,0],"split_type":[0,0,0,0,0,0,0,0,0,0,0,0,0],"sum_hessian":[2.0823477E5,4.8265957E4,1.5996881E5,1.8733088E4,2.9532867E4,3.9780125E4,1.2018869E5,9.391153E3,9.341936E3,1.1735844E4,1.7797023E4,1.2391371E4,2.7388756E4],"tree_param":{"num_deleted":"0","num_feature":"16","num_nodes":"13","size_leaf_vector":"0"}},{"base_weights":[-9.333827E-1,-9.042725E-1,-9.4386446E-1,-8.567756E-1,-9.2535263E-1,-9.3382925E-1,-9.4660515E-1,-8.0061287E-1,-8.991862E-1,-9.0687734E-1,-9.3765676E-1,-9.0997165E-1,-9.402178E-1],"categories":[],"categories_nodes":[],"categories_segments":[],"categories_sizes":[],"default_left":[true,true,true,true,true,true,false,false,false,false,false,false,false],"id":5,"left_children":[1,3,5,7,9,11,-1,-1,-1,-1,-1,-1,-1],"loss_changes":[6.2203125E1,5.4E1,3.296875E0,3.9378906E1,7.763672E0,4.1210938E0,0E0,0E0,0E0,0E0,0E0,0E0,0E0],"parents":[2147483647,0,0,1,1,2,2,3,3,4,4,5,5],"right_children":[2,4,6,8,10,12,-1,-1,-1,-1,-1,-1,-1],"split_conditions":[4.9053978E1,6.724606E1,6.4490456E1,4.972722E1,1.1260525E2,5.642938E1,-2.8398154E-2,-2.4018386E-2,-2.6975585E-2,-2.720632E-2,-2.8129702E-2,-2.7299149E-2,-2.8206533E-2],"split_indices":[6,7,6,8,12,7,0,0,0,0,0,0,0],"split_type":[0,0,0,0,0,0,0,0,0,0,0,0,0],"sum_hessian":[2.06613E5,5.4722855E4,1.5189016E5,1.6834236E4,3.788862E4,3.265691E4,1.1923324E5,7.251381E3,9.582855E3,1.5175911E4,2.2712709E4,6.928071E3,2.572884E4],"tree_param":{"num_deleted":"0","num_feature":"16","num_nodes":"13","size_leaf_vector":"0"}},{"base_weights":[-9.1330653E-1,-8.802754E-1,-9.2286956E-1,-8.3263814E-1,-9.044849E-1,-9.084863E-1,-9.259925E-1,-8.6120576E-1,-7.3718894E-1,-8.811354E-1,-9.1428196E-1,-8.8332886E-1,-9.198575E-1],"categories":[],"categories_nodes":[],"categories_segments":[],"categories_sizes":[],"default_left":[true,true,true,true,true,true,false,false,false,false,false,false,false],"id":6,"left_children":[1,3,5,7,9,11,-1,-1,-1,-1,-1,-1,-1],"loss_changes":[6.390625E1,5.23125E1,6.296875E0,4.1676758E1,6.171875E0,7.3085938E0,0E0,0E0,0E0,0E0,0E0,0E0,0E0],"parents":[2147483647,0,0,1,1,2,2,3,3,4,4,5,5],"right_children":[2,4,6,8,10,12,-1,-1,-1,-1,-1,-1,-1],"split_conditions":[4.490081E1,7.008687E1,5.8679443E1,7.7905273E-1,8.956971E1,6.726985E1,-2.7779775E-2,-2.5836172E-2,-2.2115668E-2,-2.6434062E-2,-2.7428458E-2,-2.6499866E-2,-2.7595725E-2],"split_indices":[6,7,6,15,7,7,0,0,0,0,0,0,0],"split_type":[0,0,0,0,0,0,0,0,0,0,0,0,0],"sum_hessian":[2.0484703E5,4.6012324E4,1.588347E5,1.5516246E4,3.049608E4,2.8386545E4,1.30448164E5,1.1935864E4,3.5803818E3,9.040537E3,2.1455543E4,8.861088E3,1.9525457E4],"tree_param":{"num_deleted":"0","num_feature":"16","num_nodes":"13","size_leaf_vector":"0"}},{"base_weights":[-8.943103E-1,-8.6147106E-1,-9.0426284E-1,-8.189245E-1,-8.8864005E-1,-8.897774E-1,-9.0723246E-1,-7.7002054E-1,-8.684578E-1,-8.722944E-1,-8.993992E-1,-8.6307377E-1,-9.00682E-1,-9.011599E-1,-9.0838516E-1],"categories":[],"categories_nodes":[],"categories_segments":[],"categories_sizes":[],"default_left":[true,true,true,true,true,true,true,false,false,false,false,false,false,false,false],"id":7,"left_children":[1,3,5,7,9,11,13,-1,-1,-1,-1,-1,-1,-1,-1],"loss_changes":[6.55625E1,5.3859375E1,5.8984375E0,4.3942383E1,4.283203E0,6.953125E0,8.59375E-2,0E0,0E0,0E0,0E0,0E0,0E0,0E0,0E0],"parents":[2147483647,0,0,1,1,2,2,3,3,4,4,5,5,6,6],"right_children":[2,4,6,8,10,12,14,-1,-1,-1,-1,-1,-1,-1,-1],"split_conditions":[4.5702858E1,7.518976E1,5.867391E1,5.462033E1,9.993623E1,6.491598E1,6.865132E1,-2.3100616E-2,-2.6053734E-2,-2.6168833E-2,-2.6981976E-2,-2.5892213E-2,-2.7020458E-2,-2.7034797E-2,-2.7251555E-2],"split_indices":[6,7,6,8,7,7,6,0,0,0,0,0,0,0,0],"split_type":[0,0,0,0,0,0,0,0,0,0,0,0,0,0,0],"sum_hessian":[2.0295123E5,4.7222867E4,1.5572836E5,1.841547E4,2.8807396E4,2.6545559E4,1.29182805E5,9.274926E3,9.140544E3,1.1467593E4,1.7339805E4,7.720181E3,1.8825377E4,2.0733914E4,1.0844889E5],"tree_param":{"num_deleted":"0","num_feature":"16","num_nodes":"15","size_leaf_vector":"0"}},{"base_weights":[-8.7630576E-1,-8.4215164E-1,-8.862305E-1,-7.8955734E-1,-8.65392E-1,-8.7126416E-1,-8.894838E-1,-8.199738E-1,-6.882258E-1,-8.44226E-1,-8.798925E-1,-8.4519154E-1,-8.8308835E-1,-8.832896E-1,-8.9066017E-1],"categories":[],"categories_nodes":[],"categories_segments":[],"categories_sizes":[],"default_left":[true,true,true,true,true,true,true,false,false,false,false,false,false,false,false],"id":8,"left_children":[1,3,5,7,9,11,13,-1,-1,-1,-1,-1,-1,-1,-1],"loss_changes":[6.7375E1,5.464258E1,6.8125E0,4.222461E1,8.888672E0,7.8398438E0,1.484375E-1,0E0,0E0,0E0,0E0,0E0,0E0,0E0,0E0],"parents":[2147483647,0,0,1,1,2,2,3,3,4,4,5,5,6,6],"right_children":[2,4,6,8,10,12,14,-1,-1,-1,-1,-1,-1,-1,-1],"split_conditions":[4.4900528E1,6.700105E1,5.8673344E1,7.7905273E-1,1.1260036E2,6.726985E1,6.865004E1,-2.4599215E-2,-2.0646773E-2,-2.532678E-2,-2.6396776E-2,-2.5355745E-2,-2.649265E-2,-2.6498687E-2,-2.6719805E-2],"split_indices":[6,7,6,15,12,7,6,0,0,0,0,0,0,0,0],"split_type":[0,0,0,0,0,0,0,0,0,0,0,0,0,0,0],"sum_hessian":[2.0093819E5,4.5262332E4,1.5567586E5,1.3881865E4,3.1380469E4,2.784533E4,1.2783053E5,1.0671524E4,3.210341E3,1.2782042E4,1.8598426E4,8.710634E3,1.9134697E4,2.0522025E4,1.073085E5],"tree_param":{"num_deleted":"0","num_feature":"16","num_nodes":"15","size_leaf_vector":"0"}},{"base_weights":[-8.5920936E-1,-8.2802427E-1,-8.7051684E-1,-7.779981E-1,-8.5047674E-1,-8.595835E-1,-8.7350535E-1,-7.20917E-1,-8.271663E-1,-8.305596E-1,-8.641005E-1,-8.334855E-1,-8.666079E-1],"categories":[],"categories_nodes":[],"categories_segments":[],"categories_sizes":[],"default_left":[true,true,true,true,true,true,false,false,false,false,false,false,false],"id":9,"left_children":[1,3,5,7,9,11,-1,-1,-1,-1,-1,-1,-1],"loss_changes":[6.9390625E1,5.8785156E1,4.0234375E0,4.54541E1,9.193359E0,5.03125E0,0E0,0E0,0E0,0E0,0E0,0E0,0E0],"parents":[2147483647,0,0,1,1,2,2,3,3,4,4,5,5],"right_children":[2,4,6,8,10,12,-1,-1,-1,-1,-1,-1,-1],"split_conditions":[4.9052963E1,6.724599E1,6.4465775E1,5.1592422E1,1.1302617E2,5.643125E1,-2.620516E-2,-2.162751E-2,-2.481499E-2,-2.4916789E-2,-2.5923016E-2,-2.5004564E-2,-2.5998237E-2],"split_indices":[6,7,6,8,12,7,0,0,0,0,0,0,0],"split_type":[0,0,0,0,0,0,0,0,0,0,0,0,0],"sum_hessian":[1.9882075E5,5.2926773E4,1.4589398E5,1.6406756E4,3.652002E4,3.1380303E4,1.1451368E5,7.5996846E3,8.807072E3,1.4859E4,2.1661018E4,6.680327E3,2.4699977E4],"tree_param":{"num_deleted":"0","num_feature":"16","num_nodes":"13","size_leaf_vector":"0"}},{"base_weights":[-8.429508E-1,-8.08212E-1,-8.535426E-1,-7.636886E-1,-8.369007E-1,-8.4139377E-1,-8.57567E-1,-7.9553556E-1,-6.788164E-1,-8.1921804E-1,-8.485794E-1,-8.168622E-1,-8.511048E-1],"categories":[],"categories_nodes":[],"categories_segments":[],"categories_sizes":[],"default_left":[true,true,true,true,true,true,false,false,false,false,false,false,false],"id":10,"left_children":[1,3,5,7,9,11,-1,-1,-1,-1,-1,-1,-1],"loss_changes":[7.165625E1,5.8064453E1,6.6484375E0,4.8168945E1,5.076172E0,8.248047E0,0E0,0E0,0E0,0E0,0E0,0E0,0E0],"parents":[2147483647,0,0,1,1,2,2,3,3,4,4,5,5],"right_children":[2,4,6,8,10,12,-1,-1,-1,-1,-1,-1,-1],"split_conditions":[4.5703896E1,7.518976E1,6.4491234E1,7.5268555E-1,9.993582E1,6.41726E1,-2.572701E-2,-2.3866067E-2,-2.0364491E-2,-2.4576541E-2,-2.5457382E-2,-2.4505867E-2,-2.5533143E-2],"split_indices":[6,7,6,15,7,7,0,0,0,0,0,0,0],"split_type":[0,0,0,0,0,0,0,0,0,0,0,0,0],"sum_hessian":[1.9660969E5,4.595728E4,1.506524E5,1.8019543E4,2.7937738E4,3.7538992E4,1.13113414E5,1.3096804E4,4.922739E3,1.1140766E4,1.6796973E4,1.06700205E4,2.6868973E4],"tree_param":{"num_deleted":"0","num_feature":"16","num_nodes":"13","size_leaf_vector":"0"}},{"base_weights":[-8.274632E-1,-7.9123425E-1,-8.380579E-1,-7.4826443E-1,-8.226592E-1,-8.220382E-1,-8.4155124E-1,-6.9464636E-1,-7.9744136E-1,-8.0347973E-1,-8.362948E-1,-7.942777E-1,-8.347015E-1,-8.348373E-1,-8.4278286E-1],"categories":[],"categories_nodes":[],"categories_segments":[],"categories_sizes":[],"default_left":[true,true,true,true,true,true,true,false,false,false,false,false,false,false,false],"id":11,"left_children":[1,3,5,7,9,11,13,-1,-1,-1,-1,-1,-1,-1,-1],"loss_changes":[7.39375E1,5.8777344E1,7.7265625E0,4.846582E1,5.970703E0,8.814453E0,3.203125E-1,0E0,0E0,0E0,0E0,0E0,0E0,0E0,0E0],"parents":[2147483647,0,0,1,1,2,2,3,3,4,4,5,5,6,6],"right_children":[2,4,6,8,10,12,14,-1,-1,-1,-1,-1,-1,-1,-1],"split_conditions":[4.4901833E1,1.0255333E2,5.8676666E1,5.4580917E1,1.23859055E2,6.727018E1,6.8350204E1,-2.083939E-2,-2.392324E-2,-2.4104392E-2,-2.5088843E-2,-2.3828331E-2,-2.5041044E-2,-2.504512E-2,-2.5283486E-2],"split_indices":[6,12,6,8,12,7,6,0,0,0,0,0,0,0,0],"split_type":[0,0,0,0,0,0,0,0,0,0,0,0,0,0,0],"sum_hessian":[1.9431603E5,4.398444E4,1.503316E5,1.8589863E4,2.5394576E4,2.6955977E4,1.2337562E5,8.900591E3,9.689273E3,1.0577089E4,1.4817487E4,8.464278E3,1.8491697E4,1.9228717E4,1.041469E5],"tree_param":{"num_deleted":"0","num_feature":"16","num_nodes":"15","size_leaf_vector":"0"}},{"base_weights":[-8.1268924E-1,-7.7953E-1,-8.247873E-1,-7.353104E-1,-8.0823785E-1,-8.133656E-1,-8.280836E-1,-6.847291E-1,-7.879038E-1,-7.9152185E-1,-8.2005024E-1,-7.8588146E-1,-8.207864E-1],"categories":[],"categories_nodes":[],"categories_segments":[],"categories_sizes":[],"default_left":[true,true,true,true,true,true,false,false,false,false,false,false,false],"id":12,"left_children":[1,3,5,7,9,11,-1,-1,-1,-1,-1,-1,-1],"loss_changes":[7.636719E1,6.456445E1,4.625E0,5.3243164E1,5.4960938E0,5.7890625E0,0E0,0E0,0E0,0E0,0E0,0E0,0E0],"parents":[2147483647,0,0,1,1,2,2,3,3,4,4,5,5],"right_children":[2,4,6,8,10,12,-1,-1,-1,-1,-1,-1,-1],"split_conditions":[4.9052757E1,7.518976E1,6.51221E1,5.4983E1,1.01055176E2,5.642872E1,-2.4842506E-2,-2.0541873E-2,-2.3637112E-2,-2.3745654E-2,-2.4601506E-2,-2.3576444E-2,-2.4623591E-2],"split_indices":[6,7,6,8,7,7,0,0,0,0,0,0,0],"split_type":[0,0,0,0,0,0,0,0,0,0,0,0,0],"sum_hessian":[1.919493E5,5.1328934E4,1.4062036E5,2.0216096E4,3.1112838E4,3.154919E4,1.0907118E5,1.0312325E4,9.903771E3,1.2910655E4,1.8202182E4,6.730118E3,2.481907E4],"tree_param":{"num_deleted":"0","num_feature":"16","num_nodes":"13","size_leaf_vector":"0"}},{"base_weights":[-7.9857796E-1,-7.607486E-1,-8.0969036E-1,-7.0751476E-1,-7.8841454E-1,-7.929031E-1,-8.133597E-1,-6.4450884E-1,-7.6289153E-1,-7.611326E-1,-7.9998606E-1,-7.6386297E-1,-8.062034E-1,-8.068606E-1,-8.1475776E-1],"categories":[],"categories_nodes":[],"categories_segments":[],"categories_sizes":[],"default_left":[true,true,true,true,true,true,true,false,false,false,false,false,false,false,false],"id":13,"left_children":[1,3,5,7,9,11,13,-1,-1,-1,-1,-1,-1,-1,-1],"loss_changes":[7.905469E1,6.2839844E1,8.3828125E0,5.090576E1,8.332031E0,9.546875E0,4.375E-1,0E0,0E0,0E0,0E0,0E0,0E0,0E0,0E0],"parents":[2147483647,0,0,1,1,2,2,3,3,4,4,5,5,6,6],"right_children":[2,4,6,8,10,12,14,-1,-1,-1,-1,-1,-1,-1,-1],"split_conditions":[4.489969E1,7.008687E1,5.8676254E1,5.1581955E1,8.956877E1,6.727018E1,6.9731064E1,-1.9335264E-2,-2.2886746E-2,-2.2833977E-2,-2.3999581E-2,-2.2915889E-2,-2.4186103E-2,-2.4205819E-2,-2.4442732E-2],"split_indices":[6,7,6,8,7,7,6,0,0,0,0,0,0,0,0],"split_type":[0,0,0,0,0,0,0,0,0,0,0,0,0,0,0],"sum_hessian":[1.8951814E5,4.3046348E4,1.464718E5,1.4729976E4,2.8316373E4,2.631183E4,1.2015996E5,6.8962637E3,7.833712E3,8.453231E3,1.986314E4,8.28364E3,1.802819E4,2.1375629E4,9.8784336E4],"tree_param":{"num_deleted":"0","num_feature":"16","num_nodes":"15","size_leaf_vector":"0"}},{"base_weights":[-7.850817E-1,-7.4727356E-1,-7.967155E-1,-7.020976E-1,-7.8052044E-1,-7.796914E-1,-8.002297E-1,-6.4712346E-1,-7.529621E-1,-7.604662E-1,-7.9478437E-1,-7.48648E-1,-7.9254746E-1,-7.92737E-1,-8.01515E-1],"categories":[],"categories_nodes":[],"categories_segments":[],"categories_sizes":[],"default_left":[true,true,true,true,true,true,true,false,false,false,false,false,false,false,false],"id":14,"left_children":[1,3,5,7,9,11,13,-1,-1,-1,-1,-1,-1,-1,-1],"loss_changes":[8.1671875E1,6.557422E1,7.9375E0,5.173047E1,6.647461E0,9.1875E0,5.078125E-1,0E0,0E0,0E0,0E0,0E0,0E0,0E0,0E0],"parents":[2147483647,0,0,1,1,2,2,3,3,4,4,5,5,6,6],"right_children":[2,4,6,8,10,12,14,-1,-1,-1,-1,-1,-1,-1,-1],"split_conditions":[4.5703022E1,1.0255333E2,5.867344E1,5.4580917E1,1.23859055E2,6.491598E1,6.778431E1,-1.9413704E-2,-2.2588862E-2,-2.2813985E-2,-2.384353E-2,-2.245944E-2,-2.3776423E-2,-2.378211E-2,-2.4045449E-2],"split_indices":[6,12,6,8,12,7,6,0,0,0,0,0,0,0,0],"split_type":[0,0,0,0,0,0,0,0,0,0,0,0,0,0,0],"sum_hessian":[1.87031E5,4.4024324E4,1.4300667E5,1.8673209E4,2.5351113E4,2.4507295E4,1.1849938E5,8.980671E3,9.692539E3,1.0559477E4,1.4791637E4,7.194363E3,1.7312934E4,1.7440701E4,1.0105869E5],"tree_param":{"num_deleted":"0","num_feature":"16","num_nodes":"15","size_leaf_vector":"0"}},{"base_weights":[-7.7215314E-1,-7.3673403E-1,-7.8516746E-1,-6.8994784E-1,-7.674163E-1,-7.724963E-1,-7.886603E-1,-6.376033E-1,-7.450452E-1,-7.730803E-1,-7.2705156E-1,-7.423809E-1,-7.806918E-1],"categories":[],"categories_nodes":[],"categories_segments":[],"categories_sizes":[],"default_left":[true,true,true,true,true,true,false,false,false,false,false,false,false],"id":15,"left_children":[1,3,5,7,9,11,-1,-1,-1,-1,-1,-1,-1],"loss_changes":[8.446875E1,7.066016E1,5.3671875E0,5.6200195E1,6.2851562E0,6.626953E0,0E0,0E0,0E0,0E0,0E0,0E0,0E0],"parents":[2147483647,0,0,1,1,2,2,3,3,4,4,5,5],"right_children":[2,4,6,8,10,12,-1,-1,-1,-1,-1,-1,-1],"split_conditions":[4.9052563E1,7.518976E1,6.4504524E1,5.4983E1,8.503418E-1,5.642872E1,-2.3659809E-2,-1.9128097E-2,-2.2351354E-2,-2.3192408E-2,-2.1811547E-2,-2.2271426E-2,-2.3420753E-2],"split_indices":[6,7,6,8,15,7,0,0,0,0,0,0,0],"split_type":[0,0,0,0,0,0,0,0,0,0,0,0,0],"sum_hessian":[1.8449653E5,4.9590562E4,1.3490597E5,1.9650219E4,2.9940344E4,2.9199297E4,1.0570667E5,1.008328E4,9.566938E3,2.6240148E4,3.7001968E3,6.26594E3,2.2933357E4],"tree_param":{"num_deleted":"0","num_feature":"16","num_nodes":"13","size_leaf_vector":"0"}},{"base_weights":[-7.59757E-1,-7.2018737E-1,-7.719963E-1,-6.704704E-1,-7.528959E-1,-7.5408894E-1,-7.7570176E-1,-7.070007E-1,-5.7480884E-1,-7.323317E-1,-7.665886E-1,-7.2652143E-1,-7.7008593E-1,-7.6867706E-1,-7.7721983E-1],"categories":[],"categories_nodes":[],"categories_segments":[],"categories_sizes":[],"default_left":[true,true,true,true,true,true,true,false,false,false,false,false,false,false,false],"id":16,"left_children":[1,3,5,7,9,11,13,-1,-1,-1,-1,-1,-1,-1,-1],"loss_changes":[8.755469E1,6.94082E1,8.640625E0,5.9243652E1,6.7382812E0,9.9609375E0,6.328125E-1,0E0,0E0,0E0,0E0,0E0,0E0,0E0,0E0],"parents":[2147483647,0,0,1,1,2,2,3,3,4,4,5,5,6,6],"right_children":[2,4,6,8,10,12,14,-1,-1,-1,-1,-1,-1,-1,-1],"split_conditions":[4.5703056E1,7.518976E1,5.867344E1,7.5268555E-1,9.993623E1,7.234205E1,6.975131E1,-2.121002E-2,-1.7244264E-2,-2.196995E-2,-2.2997659E-2,-2.1795642E-2,-2.3102578E-2,-2.306031E-2,-2.3316594E-2],"split_indices":[6,7,6,15,7,7,6,0,0,0,0,0,0,0,0],"split_type":[0,0,0,0,0,0,0,0,0,0,0,0,0,0,0],"sum_hessian":[1.8192105E5,4.299124E4,1.3892981E5,1.7068543E4,2.5922695E4,2.3854102E4,1.150757E5,1.2347149E4,4.7213936E3,1.0383284E4,1.5539411E4,8.776303E3,1.5077798E4,2.0539518E4,9.453619E4],"tree_param":{"num_deleted":"0","num_feature":"16","num_nodes":"15","size_leaf_vector":"0"}},{"base_weights":[-7.478548E-1,-7.009718E-1,-7.587015E-1,-6.456918E-1,-7.376588E-1,-7.369571E-1,-7.6366514E-1,-5.725955E-1,-7.0368755E-1,-7.4445E-1,-6.864292E-1,-7.008989E-1,-7.5396246E-1,-7.54999E-1,-7.6561815E-1],"categories":[],"categories_nodes":[],"categories_segments":[],"categories_sizes":[],"default_left":[true,true,true,true,true,true,true,false,false,false,false,false,false,false,false],"id":17,"left_children":[1,3,5,7,9,11,13,-1,-1,-1,-1,-1,-1,-1,-1],"loss_changes":[9.065625E1,6.787695E1,1.515625E1,5.662793E1,6.5351562E0,1.6083008E1,1.4296875E0,0E0,0E0,0E0,0E0,0E0,0E0,0E0,0E0],"parents":[2147483647,0,0,1,1,2,2,3,3,4,4,5,5,6,6],"right_children":[2,4,6,8,10,12,14,-1,-1,-1,-1,-1,-1,-1,-1],"split_conditions":[4.064791E1,7.528543E1,5.5859406E1,4.9735207E1,8.552246E-1,6.767653E1,6.776896E1,-1.7177863E-2,-2.1110626E-2,-2.2333499E-2,-2.0592876E-2,-2.1026965E-2,-2.2618873E-2,-2.2649968E-2,-2.2968544E-2],"split_indices":[6,7,6,8,15,7,6,0,0,0,0,0,0,0,0],"split_type":[0,0,0,0,0,0,0,0,0,0,0,0,0,0,0],"sum_hessian":[1.7931184E5,3.3702734E4,1.4560911E5,1.3451942E4,2.0250793E4,2.708895E4,1.18520164E5,5.9560117E3,7.4959307E3,1.786855E4,2.3822407E3,8.694775E3,1.8394174E4,2.1868576E4,9.6651586E4],"tree_param":{"num_deleted":"0","num_feature":"16","num_nodes":"15","size_leaf_vector":"0"}},{"base_weights":[-7.3641753E-1,-6.984695E-1,-7.5047237E-1,-6.3917154E-1,-7.257073E-1,-7.3668176E-1,-7.542811E-1,-6.8435985E-1,-5.502858E-1,-7.00644E-1,-7.4275804E-1,-7.039815E-1,-7.456351E-1],"categories":[],"categories_nodes":[],"categories_segments":[],"categories_sizes":[],"default_left":[true,true,true,true,true,true,false,false,false,false,false,false,false],"id":18,"left_children":[1,3,5,7,9,11,-1,-1,-1,-1,-1,-1,-1],"loss_changes":[9.371094E1,7.668359E1,6.21875E0,6.0043457E1,1.3464844E1,7.6552734E0,0E0,0E0,0E0,0E0,0E0,0E0,0E0],"parents":[2147483647,0,0,1,1,2,2,3,3,4,4,5,5],"right_children":[2,4,6,8,10,12,-1,-1,-1,-1,-1,-1,-1],"split_conditions":[4.9052563E1,6.7073685E1,6.449132E1,2.726283E0,1.1260036E2,5.642872E1,-2.2628432E-2,-2.0530796E-2,-1.6508574E-2,-2.1019321E-2,-2.228274E-2,-2.1119446E-2,-2.2369051E-2],"split_indices":[6,7,6,3,12,7,0,0,0,0,0,0,0],"split_type":[0,0,0,0,0,0,0,0,0,0,0,0,0],"sum_hessian":[1.7667433E5,4.776358E4,1.2891076E5,1.5041639E4,3.2721938E4,2.7940404E4,1.0097035E5,9.967567E3,5.074072E3,1.3265212E4,1.9456727E4,6.0228193E3,2.1917586E4],"tree_param":{"num_deleted":"0","num_feature":"16","num_nodes":"13","size_leaf_vector":"0"}},{"base_weights":[-7.254092E-1,-6.829817E-1,-7.386449E-1,-6.330429E-1,-7.2031593E-1,-7.233337E-1,-7.43756E-1,-5.73103E-1,-6.895618E-1,-6.975402E-1,-7.3665214E-1,-6.925783E-1,-7.3571247E-1],"categories":[],"categories_nodes":[],"categories_segments":[],"categories_sizes":[],"default_left":[true,true,true,true,true,true,false,false,false,false,false,false,false],"id":19,"left_children":[1,3,5,7,9,11,-1,-1,-1,-1,-1,-1,-1],"loss_changes":[9.722656E1,7.671484E1,9.84375E0,5.9617676E1,8.295898E0,1.2140625E1,0E0,0E0,0E0,0E0,0E0,0E0,0E0],"parents":[2147483647,0,0,1,1,2,2,3,3,4,4,5,5],"right_children":[2,4,6,8,10,12,-1,-1,-1,-1,-1,-1,-1],"split_conditions":[4.5702858E1,1.0255333E2,6.446478E1,5.4580917E1,1.23859055E2,6.41726E1,-2.231268E-2,-1.719309E-2,-2.0686854E-2,-2.0926205E-2,-2.2099564E-2,-2.0777348E-2,-2.2071373E-2],"split_indices":[6,12,6,8,12,7,0,0,0,0,0,0,0],"split_type":[0,0,0,0,0,0,0,0,0,0,0,0,0],"sum_hessian":[1.740155E5,4.1390176E4,1.3262533E5,1.7713814E4,2.3676361E4,3.32278E4,9.939753E4,8.602144E3,9.111672E3,9.907366E3,1.3768995E4,9.552169E3,2.367563E4],"tree_param":{"num_deleted":"0","num_feature":"16","num_nodes":"13","size_leaf_vector":"0"}},{"base_weights":[-7.148065E-1,-6.704312E-1,-7.2809654E-1,-6.211159E-1,-7.1033645E-1,-7.0790195E-1,-7.325511E-1,-6.614328E-1,-5.2685446E-1,-7.168071E-1,-6.617148E-1,-6.7353356E-1,-7.239176E-1,-7.2468466E-1,-7.342511E-1],"categories":[],"categories_nodes":[],"categories_segments":[],"categories_sizes":[],"default_left":[true,true,true,true,true,true,true,false,false,false,false,false,false,false,false],"id":20,"left_children":[1,3,5,7,9,11,13,-1,-1,-1,-1,-1,-1,-1,-1],"loss_changes":[1.005625E2,7.729492E1,1.134375E1,6.682422E1,6.392578E0,1.2642578E1,9.140625E-1,0E0,0E0,0E0,0E0,0E0,0E0,0E0,0E0],"parents":[2147483647,0,0,1,1,2,2,3,3,4,4,5,5,6,6],"right_children":[2,4,6,8,10,12,14,-1,-1,-1,-1,-1,-1,-1,-1],"split_conditions":[4.4899796E1,7.985626E1,5.8675804E1,7.385254E-1,8.552246E-1,6.726985E1,6.973125E1,-1.9842984E-2,-1.5805634E-2,-2.1504214E-2,-1.9851442E-2,-2.0206006E-2,-2.1717528E-2,-2.1740539E-2,-2.2027532E-2],"split_indices":[6,7,6,15,15,7,6,0,0,0,0,0,0,0,0],"split_type":[0,0,0,0,0,0,0,0,0,0,0,0,0,0,0],"sum_hessian":[1.7133986E5,3.9500305E4,1.3183956E5,1.7674516E4,2.1825787E4,2.3854822E4,1.07984734E5,1.2375382E4,5.2991333E3,1.9250191E4,2.575597E3,7.5964536E3,1.6258369E4,1.9265193E4,8.871954E4],"tree_param":{"num_deleted":"0","num_feature":"16","num_nodes":"15","size_leaf_vector":"0"}},{"base_weights":[-7.0458305E-1,-6.6384506E-1,-7.198061E-1,-6.010462E-1,-6.930514E-1,-7.048006E-1,-7.2396547E-1,-6.4851093E-1,-5.08622E-1,-6.693219E-1,-7.135976E-1,-6.7502064E-1,-7.163155E-1],"categories":[],"categories_nodes":[],"categories_segments":[],"categories_sizes":[],"default_left":[true,true,true,true,true,true,false,false,false,false,false,false,false],"id":21,"left_children":[1,3,5,7,9,11,-1,-1,-1,-1,-1,-1,-1],"loss_changes":[1.0411719E2,8.375391E1,7.1523438E0,6.361084E1,1.4791016E1,8.666992E0,0E0,0E0,0E0,0E0,0E0,0E0,0E0],"parents":[2147483647,0,0,1,1,2,2,3,3,4,4,5,5],"right_children":[2,4,6,8,10,12,-1,-1,-1,-1,-1,-1,-1],"split_conditions":[4.9052757E1,6.7073685E1,6.4494606E1,2.726283E0,1.171616E2,6.3282677E1,-2.1718964E-2,-1.9455327E-2,-1.525866E-2,-2.0079656E-2,-2.1407928E-2,-2.0250618E-2,-2.1489466E-2],"split_indices":[6,7,6,3,12,7,0,0,0,0,0,0,0],"split_type":[0,0,0,0,0,0,0,0,0,0,0,0,0],"sum_hessian":[1.686525E5,4.5890535E4,1.2276197E5,1.4574439E4,3.1316096E4,2.6680424E4,9.608155E4,9.625316E3,4.949123E3,1.4547842E4,1.6768254E4,7.4563296E3,1.9224094E4],"tree_param":{"num_deleted":"0","num_feature":"16","num_nodes":"13","size_leaf_vector":"0"}},{"base_weights":[-6.947151E-1,-6.4918745E-1,-7.090542E-1,-5.964331E-1,-6.8906283E-1,-6.879517E-1,-7.134582E-1,-5.331002E-1,-6.568534E-1,-6.646376E-1,-7.066899E-1,-6.5600723E-1,-7.0676637E-1,-7.0458084E-1,-7.151579E-1],"categories":[],"categories_nodes":[],"categories_segments":[],"categories_sizes":[],"default_left":[true,true,true,true,true,true,true,false,false,false,false,false,false,false,false],"id":22,"left_children":[1,3,5,7,9,11,13,-1,-1,-1,-1,-1,-1,-1,-1],"loss_changes":[1.0788281E2,8.323242E1,1.1238281E1,6.5177246E1,9.277344E0,1.26484375E1,1.0742188E0,0E0,0E0,0E0,0E0,0E0,0E0,0E0,0E0],"parents":[2147483647,0,0,1,1,2,2,3,3,4,4,5,5,6,6],"right_children":[2,4,6,8,10,12,14,-1,-1,-1,-1,-1,-1,-1,-1],"split_conditions":[4.5703022E1,1.0255333E2,5.867447E1,5.4580917E1,1.238602E2,7.234205E1,6.864465E1,-1.5993005E-2,-1.9705601E-2,-1.9939128E-2,-2.1200696E-2,-1.9680217E-2,-2.120299E-2,-2.1137426E-2,-2.1454737E-2],"split_indices":[6,12,6,8,12,7,6,0,0,0,0,0,0,0,0],"split_type":[0,0,0,0,0,0,0,0,0,0,0,0,0,0,0],"sum_hessian":[1.65958E5,3.9760715E4,1.2619729E5,1.7123125E4,2.2637588E4,2.1816723E4,1.0438057E5,8.364853E3,8.758272E3,9.50522E3,1.3132368E4,8.100016E3,1.3716706E4,1.6840832E4,8.7539734E4],"tree_param":{"num_deleted":"0","num_feature":"16","num_nodes":"15","size_leaf_vector":"0"}},{"base_weights":[-6.851826E-1,-6.424711E-1,-7.012466E-1,-5.880752E-1,-6.793047E-1,-6.8533736E-1,-7.0566773E-1,-5.270886E-1,-6.542796E-1,-6.5658385E-1,-6.95591E-1,-6.48131E-1,-6.9564193E-1,-7.007297E-1,-7.067876E-1],"categories":[],"categories_nodes":[],"categories_segments":[],"categories_sizes":[],"default_left":[true,true,true,true,true,true,true,false,false,false,false,false,false,false,false],"id":23,"left_children":[1,3,5,7,9,11,13,-1,-1,-1,-1,-1,-1,-1,-1],"loss_changes":[1.1157031E2,8.902734E1,7.8632812E0,7.2444336E1,9.388672E0,9.453125E0,1.953125E-2,0E0,0E0,0E0,0E0,0E0,0E0,0E0,0E0],"parents":[2147483647,0,0,1,1,2,2,3,3,4,4,5,5,6,6],"right_children":[2,4,6,8,10,12,14,-1,-1,-1,-1,-1,-1,-1,-1],"split_conditions":[4.9052563E1,7.518976E1,6.4494705E1,5.4983E1,1.0105504E2,5.642872E1,7.517171E1,-1.5812658E-2,-1.9628387E-2,-1.9697515E-2,-2.086773E-2,-1.944393E-2,-2.0869257E-2,-2.1021891E-2,-2.1203628E-2],"split_indices":[6,7,6,8,7,7,6,0,0,0,0,0,0,0,0],"split_type":[0,0,0,0,0,0,0,0,0,0,0,0,0,0,0],"sum_hessian":[1.6326036E5,4.4632156E4,1.18628195E5,1.8026957E4,2.6605201E4,2.5831342E4,9.279685E4,9.387906E3,8.639052E3,1.1125441E4,1.547976E4,5.616372E3,2.021497E4,1.7270166E4,7.552669E4],"tree_param":{"num_deleted":"0","num_feature":"16","num_nodes":"15","size_leaf_vector":"0"}},{"base_weights":[-6.7596674E-1,-6.2823737E-1,-6.9110286E-1,-5.7364374E-1,-6.6983396E-1,-6.7351097E-1,-6.970266E-1,-6.090254E-1,-4.6091133E-1,-6.441821E-1,-6.8842524E-1,-6.386861E-1,-6.8771434E-1,-6.9198513E-1,-6.9817346E-1],"categories":[],"categories_nodes":[],"categories_segments":[],"categories_sizes":[],"default_left":[true,true,true,true,true,true,true,false,false,false,false,false,false,false,false],"id":24,"left_children":[1,3,5,7,9,11,13,-1,-1,-1,-1,-1,-1,-1,-1],"loss_changes":[1.1557031E2,8.743164E1,1.2234375E1,6.6447266E1,1.0020508E1,1.4763672E1,4.6875E-2,0E0,0E0,0E0,0E0,0E0,0E0,0E0,0E0],"parents":[2147483647,0,0,1,1,2,2,3,3,4,4,5,5,6,6],"right_children":[2,4,6,8,10,12,14,-1,-1,-1,-1,-1,-1,-1,-1],"split_conditions":[4.5703056E1,1.0255333E2,6.4491104E1,7.824707E-1,1.23859055E2,6.41726E1,7.51935E1,-1.8270763E-2,-1.382734E-2,-1.9325461E-2,-2.0652756E-2,-1.9160584E-2,-2.0631429E-2,-2.0759553E-2,-2.0945203E-2],"split_indices":[6,12,6,15,12,7,6,0,0,0,0,0,0,0,0],"split_type":[0,0,0,0,0,0,0,0,0,0,0,0,0,0,0],"sum_hessian":[1.605631E5,3.8669047E4,1.2189404E5,1.6728475E4,2.1940574E4,3.0734707E4,9.1159336E4,1.2729007E4,3.999467E3,9.234589E3,1.2705986E4,8.917095E3,2.1817611E4,1.7006658E4,7.415268E4],"tree_param":{"num_deleted":"0","num_feature":"16","num_nodes":"15","size_leaf_vector":"0"}},{"base_weights":[-6.6704106E-1,-6.222505E-1,-6.8400323E-1,-5.6566966E-1,-6.609043E-1,-6.6714746E-1,-6.886993E-1,-5.025187E-1,-6.342268E-1,-6.363062E-1,-6.7748624E-1,-6.3832355E-1,-6.819285E-1,-6.8353105E-1,-6.8987495E-1],"categories":[],"categories_nodes":[],"categories_segments":[],"categories_sizes":[],"default_left":[true,true,true,true,true,true,true,false,false,false,false,false,false,false,false],"id":25,"left_children":[1,3,5,7,9,11,13,-1,-1,-1,-1,-1,-1,-1,-1],"loss_changes":[1.1952344E2,9.449219E1,8.605469E0,7.593213E1,1.0078125E1,1.0207031E1,7.421875E-2,0E0,0E0,0E0,0E0,0E0,0E0,0E0,0E0],"parents":[2147483647,0,0,1,1,2,2,3,3,4,4,5,5,6,6],"right_children":[2,4,6,8,10,12,14,-1,-1,-1,-1,-1,-1,-1,-1],"split_conditions":[4.905209E1,7.518976E1,6.449138E1,5.4809998E1,9.993582E1,6.928527E1,7.518953E1,-1.5075561E-2,-1.9026803E-2,-1.9089187E-2,-2.0324586E-2,-1.9149706E-2,-2.0457854E-2,-2.0505931E-2,-2.0696249E-2],"split_indices":[6,7,6,8,7,7,6,0,0,0,0,0,0,0,0],"split_type":[0,0,0,0,0,0,0,0,0,0,0,0,0,0,0],"sum_hessian":[1.5787162E5,4.3374293E4,1.14497336E5,1.7611094E4,2.57632E4,2.4979795E4,8.951754E4,9.171319E3,8.439773E3,1.0389929E4,1.53732705E4,8.482525E3,1.649727E4,1.6697113E4,7.282043E4],"tree_param":{"num_deleted":"0","num_feature":"16","num_nodes":"15","size_leaf_vector":"0"}},{"base_weights":[-6.584002E-1,-6.072458E-1,-6.7403984E-1,-5.5206543E-1,-6.5311015E-1,-6.5020883E-1,-6.7934954E-1,-5.9722584E-1,-4.485529E-1,-6.6069645E-1,-5.967002E-1,-6.104729E-1,-6.6906965E-1,-6.694468E-1,-6.812508E-1],"categories":[],"categories_nodes":[],"categories_segments":[],"categories_sizes":[],"default_left":[true,true,true,true,true,true,true,false,false,false,false,false,false,false,false],"id":26,"left_children":[1,3,5,7,9,11,13,-1,-1,-1,-1,-1,-1,-1,-1],"loss_changes":[1.2375E2,9.162695E1,1.46015625E1,7.6884766E1,8.097656E0,1.5837891E1,1.375E0,0E0,0E0,0E0,0E0,0E0,0E0,0E0,0E0],"parents":[2147483647,0,0,1,1,2,2,3,3,4,4,5,5,6,6],"right_children":[2,4,6,8,10,12,14,-1,-1,-1,-1,-1,-1,-1,-1],"split_conditions":[4.489969E1,7.985626E1,5.867415E1,7.385254E-1,8.552246E-1,6.726985E1,6.863854E1,-1.7916774E-2,-1.3456587E-2,-1.9820893E-2,-1.7901005E-2,-1.8314186E-2,-2.007209E-2,-2.0083405E-2,-2.0437524E-2],"split_indices":[6,7,6,15,15,7,6,0,0,0,0,0,0,0,0],"split_type":[0,0,0,0,0,0,0,0,0,0,0,0,0,0,0],"sum_hessian":[1.5518658E5,3.634588E4,1.18840695E5,1.6503373E4,1.9842504E4,2.167639E4,9.7164305E4,1.1487039E4,5.016335E3,1.7480877E4,2.3616252E3,6.9878237E3,1.4688567E4,1.5707E4,8.1457305E4],"tree_param":{"num_deleted":"0","num_feature":"16","num_nodes":"15","size_leaf_vector":"0"}},{"base_weights":[-6.500191E-1,-6.0580575E-1,-6.6904086E-1,-5.371175E-1,-6.3856864E-1,-6.529718E-1,-6.730442E-1,-4.5940137E-1,-6.0351795E-1,-6.121649E-1,-6.6127574E-1,-6.288113E-1,-6.6768646E-1,-6.6778576E-1,-6.7416525E-1],"categories":[],"categories_nodes":[],"categories_segments":[],"categories_sizes":[],"default_left":[true,true,true,true,true,true,true,false,false,false,false,false,false,false,false],"id":27,"left_children":[1,3,5,7,9,11,13,-1,-1,-1,-1,-1,-1,-1,-1],"loss_changes":[1.2786328E2,1.0292578E2,6.421875E0,7.622803E1,1.8219727E1,7.1523438E0,5.46875E-2,0E0,0E0,0E0,0E0,0E0,0E0,0E0,0E0],"parents":[2147483647,0,0,1,1,2,2,3,3,4,4,5,5,6,6],"right_children":[2,4,6,8,10,12,14,-1,-1,-1,-1,-1,-1,-1,-1],"split_conditions":[5.148415E1,6.700105E1,6.5106964E1,5.028164E1,1.171616E2,7.3384705E1,7.514242E1,-1.3782041E-2,-1.8105539E-2,-1.8364947E-2,-1.9838272E-2,-1.886434E-2,-2.0030593E-2,-2.0033572E-2,-2.0224957E-2],"split_indices":[6,7,6,8,12,7,6,0,0,0,0,0,0,0,0],"split_type":[0,0,0,0,0,0,0,0,0,0,0,0,0,0,0],"sum_hessian":[1.5251305E5,4.588729E4,1.0662575E5,1.4824572E4,3.1062719E4,2.1298781E4,8.532697E4,6.8339385E3,7.990634E3,1.437525E4,1.6687469E4,8.078338E3,1.3220442E4,1.509913E4,7.022784E4],"tree_param":{"num_deleted":"0","num_feature":"16","num_nodes":"15","size_leaf_vector":"0"}},{"base_weights":[-6.4188826E-1,-5.894153E-1,-6.587803E-1,-5.306279E-1,-6.349475E-1,-6.3912505E-1,-6.654428E-1,-4.615877E-1,-5.9826636E-1,-6.402042E-1,-5.2384144E-1,-6.00777E-1,-6.549504E-1,-6.5984213E-1,-6.66716E-1],"categories":[],"categories_nodes":[],"categories_segments":[],"categories_sizes":[],"default_left":[true,true,true,true,true,true,true,false,false,false,false,false,false,false,false],"id":28,"left_children":[1,3,5,7,9,11,13,-1,-1,-1,-1,-1,-1,-1,-1],"loss_changes":[1.324414E2,9.736914E1,1.4421875E1,7.415137E1,1.1676758E1,1.703711E1,1.640625E-1,0E0,0E0,0E0,0E0,0E0,0E0,0E0,0E0],"parents":[2147483647,0,0,1,1,2,2,3,3,4,4,5,5,6,6],"right_children":[2,4,6,8,10,12,14,-1,-1,-1,-1,-1,-1,-1,-1],"split_conditions":[4.5702858E1,1.0255333E2,6.4491104E1,5.4580917E1,3.331984E0,6.41726E1,7.516836E1,-1.38476305E-2,-1.794799E-2,-1.9206125E-2,-1.5715243E-2,-1.8023308E-2,-1.9648511E-2,-1.9795263E-2,-2.0001478E-2],"split_indices":[6,12,6,8,3,7,6,0,0,0,0,0,0,0,0],"split_type":[0,0,0,0,0,0,0,0,0,0,0,0,0,0,0],"sum_hessian":[1.4985261E5,3.6501395E4,1.1335122E5,1.5937225E4,2.056417E4,2.8720402E4,8.463081E4,7.8907603E3,8.0464644E3,1.9630629E4,9.3354114E2,8.401288E3,2.0319113E4,1.5770919E4,6.88599E4],"tree_param":{"num_deleted":"0","num_feature":"16","num_nodes":"15","size_leaf_vector":"0"}},{"base_weights":[-6.339888E-1,-5.847605E-1,-6.5291494E-1,-5.295332E-1,-6.312796E-1,-6.3401586E-1,-6.582132E-1,-4.6545494E-1,-6.00216E-1,-6.387567E-1,-5.791512E-1,-5.907811E-1,-6.461904E-1,-6.5246314E-1,-6.59521E-1],"categories":[],"categories_nodes":[],"categories_segments":[],"categories_sizes":[],"default_left":[true,true,true,true,true,true,true,false,false,false,false,false,false,false,false],"id":29,"left_children":[1,3,5,7,9,11,13,-1,-1,-1,-1,-1,-1,-1,-1],"loss_changes":[1.3677734E2,1.0471484E2,1.0230469E1,8.4421875E1,8.279297E0,1.1886719E1,1.953125E-1,0E0,0E0,0E0,0E0,0E0,0E0,0E0,0E0],"parents":[2147483647,0,0,1,1,2,2,3,3,4,4,5,5,6,6],"right_children":[2,4,6,8,10,12,14,-1,-1,-1,-1,-1,-1,-1,-1],"split_conditions":[4.905209E1,7.985626E1,6.4494194E1,5.4982246E1,8.503418E-1,5.642872E1,7.517093E1,-1.3963648E-2,-1.800648E-2,-1.91627E-2,-1.7374536E-2,-1.7723432E-2,-1.9385712E-2,-1.9573893E-2,-1.978563E-2],"split_indices":[6,7,6,8,15,7,6,0,0,0,0,0,0,0,0],"split_type":[0,0,0,0,0,0,0,0,0,0,0,0,0,0,0],"sum_hessian":[1.4720892E5,4.0888098E4,1.0632083E5,1.8699965E4,2.2188133E4,2.3306506E4,8.301432E4,9.812195E3,8.88777E3,1.9394959E4,2.7931729E3,5.131798E3,1.8174707E4,1.5474571E4,6.753975E4],"tree_param":{"num_deleted":"0","num_feature":"16","num_nodes":"15","size_leaf_vector":"0"}},{"base_weights":[-6.263129E-1,-5.713656E-1,-6.4414835E-1,-5.1302254E-1,-6.2086445E-1,-6.1774886E-1,-6.497377E-1,-5.610574E-1,-4.042486E-1,-6.289761E-1,-5.6112117E-1,-5.7894325E-1,-6.41178E-1,-6.380267E-1,-6.5177053E-1],"categories":[],"categories_nodes":[],"categories_segments":[],"categories_sizes":[],"default_left":[true,true,true,true,true,true,true,false,false,false,false,false,false,false,false],"id":30,"left_children":[1,3,5,7,9,11,13,-1,-1,-1,-1,-1,-1,-1,-1],"loss_changes":[1.4132812E2,1.0202734E2,1.5707031E1,8.479492E1,8.936523E0,1.6986328E1,1.7304688E0,0E0,0E0,0E0,0E0,0E0,0E0,0E0,0E0],"parents":[2147483647,0,0,1,1,2,2,3,3,4,4,5,5,6,6],"right_children":[2,4,6,8,10,12,14,-1,-1,-1,-1,-1,-1,-1,-1],"split_conditions":[4.5703022E1,7.985626E1,5.867415E1,7.385254E-1,8.552246E-1,7.234205E1,6.777153E1,-1.6831722E-2,-1.2127457E-2,-1.8869283E-2,-1.6833635E-2,-1.7368298E-2,-1.9235339E-2,-1.91408E-2,-1.9553116E-2],"split_indices":[6,7,6,15,15,7,6,0,0,0,0,0,0,0,0],"split_type":[0,0,0,0,0,0,0,0,0,0,0,0,0,0,0],"sum_hessian":[1.4458322E5,3.5438293E4,1.09144914E5,1.6271216E4,1.9167078E4,1.9090223E4,9.0054695E4,1.128401E4,4.987206E3,1.6867385E4,2.2996948E3,7.196471E3,1.1893752E4,1.336629E4,7.668841E4],"tree_param":{"num_deleted":"0","num_feature":"16","num_nodes":"15","size_leaf_vector":"0"}},{"base_weights":[-6.188434E-1,-5.7027745E-1,-6.400665E-1,-5.162199E-1,-6.1923563E-1,-6.219768E-1,-6.446005E-1,-4.4577488E-1,-5.7741594E-1,-5.910217E-1,-6.355085E-1,-5.9516376E-1,-6.38463E-1,-6.387405E-1,-6.458527E-1],"categories":[],"categories_nodes":[],"categories_segments":[],"categories_sizes":[],"default_left":[true,true,true,true,true,true,true,false,false,false,false,false,false,false,false],"id":31,"left_children":[1,3,5,7,9,11,13,-1,-1,-1,-1,-1,-1,-1,-1],"loss_changes":[1.4597656E2,1.1397266E2,7.7070312E0,8.824658E1,1.0026367E1,8.384766E0,1.6796875E-1,0E0,0E0,0E0,0E0,0E0,0E0,0E0,0E0],"parents":[2147483647,0,0,1,1,2,2,3,3,4,4,5,5,6,6],"right_children":[2,4,6,8,10,12,14,-1,-1,-1,-1,-1,-1,-1,-1],"split_conditions":[5.148365E1,1.0618112E2,6.510768E1,5.2429943E1,1.23859055E2,7.3384705E1,7.514458E1,-1.3373246E-2,-1.7322479E-2,-1.7730651E-2,-1.9065253E-2,-1.7854912E-2,-1.915389E-2,-1.9162213E-2,-1.937558E-2],"split_indices":[6,12,6,8,12,7,6,0,0,0,0,0,0,0,0],"split_type":[0,0,0,0,0,0,0,0,0,0,0,0,0,0,0],"sum_hessian":[1.4197867E5,4.3184727E4,9.879395E4,2.052901E4,2.2655715E4,1.982696E4,7.896699E4,9.54718E3,1.0981831E4,8.300904E3,1.435481E4,7.563253E3,1.2263708E4,1.3992476E4,6.4974516E4],"tree_param":{"num_deleted":"0","num_feature":"16","num_nodes":"15","size_leaf_vector":"0"}},{"base_weights":[-6.115699E-1,-5.5274975E-1,-6.300022E-1,-4.94802E-1,-6.0799277E-1,-6.01939E-1,-6.363337E-1,-4.182392E-1,-5.661894E-1,-6.163921E-1,-5.459517E-1,-5.561295E-1,-6.2415904E-1,-6.23883E-1,-6.384997E-1],"categories":[],"categories_nodes":[],"categories_segments":[],"categories_sizes":[],"default_left":[true,true,true,true,true,true,true,false,false,false,false,false,false,false,false],"id":32,"left_children":[1,3,5,7,9,11,13,-1,-1,-1,-1,-1,-1,-1,-1],"loss_changes":[1.5078906E2,1.0619824E2,1.8476562E1,8.853613E1,8.537109E0,1.9557617E1,1.9375E0,0E0,0E0,0E0,0E0,0E0,0E0,0E0,0E0],"parents":[2147483647,0,0,1,1,2,2,3,3,4,4,5,5,6,6],"right_children":[2,4,6,8,10,12,14,-1,-1,-1,-1,-1,-1,-1,-1],"split_conditions":[4.489969E1,8.252068E1,5.8672287E1,5.1599476E1,8.557129E-1,6.726985E1,6.776896E1,-1.2547176E-2,-1.6985683E-2,-1.8491762E-2,-1.6378552E-2,-1.6683886E-2,-1.8724771E-2,-1.871649E-2,-1.915499E-2],"split_indices":[6,7,6,8,15,7,6,0,0,0,0,0,0,0,0],"split_type":[0,0,0,0,0,0,0,0,0,0,0,0,0,0,0],"sum_hessian":[1.3939712E5,3.326739E4,1.0612973E5,1.6241086E4,1.7026305E4,1.9554352E4,8.6575375E4,7.8397925E3,8.401294E3,1.4988223E4,2.0380826E3,6.3954087E3,1.3158943E4,1.2872038E4,7.3703336E4],"tree_param":{"num_deleted":"0","num_feature":"16","num_nodes":"15","size_leaf_vector":"0"}},{"base_weights":[-6.044889E-1,-5.53648E-1,-6.2689775E-1,-4.7741872E-1,-5.9125E-1,-6.0767865E-1,-6.317296E-1,-5.355645E-1,-3.6911136E-1,-5.610107E-1,-6.1763144E-1,-5.794145E-1,-6.2514585E-1,-6.255284E-1,-6.330586E-1],"categories":[],"categories_nodes":[],"categories_segments":[],"categories_sizes":[],"default_left":[true,true,true,true,true,true,true,false,false,false,false,false,false,false,false],"id":33,"left_children":[1,3,5,7,9,11,13,-1,-1,-1,-1,-1,-1,-1,-1],"loss_changes":[1.5555469E2,1.1973633E2,8.4375E0,8.693945E1,2.2018555E1,9.0703125E0,2.3046875E-1,0E0,0E0,0E0,0E0,0E0,0E0,0E0,0E0],"parents":[2147483647,0,0,1,1,2,2,3,3,4,4,5,5,6,6],"right_children":[2,4,6,8,10,12,14,-1,-1,-1,-1,-1,-1,-1,-1],"split_conditions":[5.148365E1,6.7073685E1,6.510522E1,2.726283E0,1.171616E2,7.3384705E1,7.515662E1,-1.6066935E-2,-1.1073341E-2,-1.6830321E-2,-1.8528942E-2,-1.7382434E-2,-1.8754374E-2,-1.8765852E-2,-1.8991757E-2],"split_indices":[6,7,6,3,12,7,6,0,0,0,0,0,0,0,0],"split_type":[0,0,0,0,0,0,0,0,0,0,0,0,0,0,0],"sum_hessian":[1.368387E5,4.187008E4,9.4968625E4,1.3835516E4,2.8034562E4,1.9104723E4,7.58639E4,8.999896E3,4.835619E3,1.3072587E4,1.4961975E4,7.310152E3,1.179457E4,1.3472507E4,6.2391395E4],"tree_param":{"num_deleted":"0","num_feature":"16","num_nodes":"15","size_leaf_vector":"0"}},{"base_weights":[-5.975795E-1,-5.4234374E-1,-6.192784E-1,-4.764673E-1,-5.894961E-1,-5.974612E-1,-6.254487E-1,-4.1221708E-1,-5.6867456E-1,-5.593158E-1,-6.115441E-1,-5.4833066E-1,-6.115094E-1,-6.188087E-1,-6.2696E-1],"categories":[],"categories_nodes":[],"categories_segments":[],"categories_sizes":[],"default_left":[true,true,true,true,true,true,true,false,false,false,false,false,false,false,false],"id":34,"left_children":[1,3,5,7,9,11,13,-1,-1,-1,-1,-1,-1,-1,-1],"loss_changes":[1.6064062E2,1.1741016E2,1.2609375E1,9.3437256E1,1.4349121E1,1.4352051E1,3.671875E-1,0E0,0E0,0E0,0E0,0E0,0E0,0E0,0E0],"parents":[2147483647,0,0,1,1,2,2,3,3,4,4,5,5,6,6],"right_children":[2,4,6,8,10,12,14,-1,-1,-1,-1,-1,-1,-1,-1],"split_conditions":[4.9051773E1,7.518976E1,6.4492035E1,7.42392E1,1.0105504E2,5.642872E1,7.515293E1,-1.2366512E-2,-1.7060237E-2,-1.6779473E-2,-1.834632E-2,-1.6449919E-2,-1.8345281E-2,-1.856426E-2,-1.8808799E-2],"split_indices":[6,7,6,0,7,7,6,0,0,0,0,0,0,0,0],"split_type":[0,0,0,0,0,0,0,0,0,0,0,0,0,0,0],"sum_hessian":[1.343074E5,3.7887832E4,9.641957E4,1.5810349E4,2.2077482E4,2.1279055E4,7.5140516E4,9.320955E3,6.489393E3,9.331056E3,1.2746426E4,4.7404146E3,1.653864E4,1.4007303E4,6.113321E4],"tree_param":{"num_deleted":"0","num_feature":"16","num_nodes":"15","size_leaf_vector":"0"}},{"base_weights":[-5.908379E-1,-5.2923787E-1,-6.112899E-1,-4.686689E-1,-5.871049E-1,-5.8739847E-1,-6.19489E-1,-3.9072743E-1,-5.3883964E-1,-6.020713E-1,-5.4131955E-1,-5.4187226E-1,-6.066145E-1,-6.126564E-1,-6.210503E-1],"categories":[],"categories_nodes":[],"categories_segments":[],"categories_sizes":[],"default_left":[true,true,true,true,true,true,true,false,false,false,false,false,false,false,false],"id":35,"left_children":[1,3,5,7,9,11,13,-1,-1,-1,-1,-1,-1,-1,-1],"loss_changes":[1.6573047E2,1.14899414E2,1.9019531E1,8.76272E1,1.1186523E1,2.180371E1,4.0625E-1,0E0,0E0,0E0,0E0,0E0,0E0,0E0,0E0],"parents":[2147483647,0,0,1,1,2,2,3,3,4,4,5,5,6,6],"right_children":[2,4,6,8,10,12,14,-1,-1,-1,-1,-1,-1,-1,-1],"split_conditions":[4.5703022E1,1.0618112E2,6.4465614E1,5.2429943E1,2.7551093E0,6.41726E1,7.5159164E1,-1.1721822E-2,-1.616519E-2,-1.8062139E-2,-1.6239585E-2,-1.6256167E-2,-1.8198434E-2,-1.8379692E-2,-1.8631509E-2],"split_indices":[6,12,6,8,3,7,6,0,0,0,0,0,0,0,0],"split_type":[0,0,0,0,0,0,0,0,0,0,0,0,0,0,0],"sum_hessian":[1.3180345E5,3.2859594E4,9.894385E4,1.6059428E4,1.6800168E4,2.5298695E4,7.364516E4,7.6115435E3,8.447885E3,1.2652231E4,4.1479355E3,7.5175146E3,1.778118E4,1.3771277E4,5.987388E4],"tree_param":{"num_deleted":"0","num_feature":"16","num_nodes":"15","size_leaf_vector":"0"}},{"base_weights":[-5.842564E-1,-5.2984595E-1,-6.085722E-1,-4.622872E-1,-5.7717484E-1,-5.875898E-1,-6.138766E-1,-5.1089245E-1,-3.4115478E-1,-5.460466E-1,-5.9925205E-1,-5.571209E-1,-6.0658014E-1,-6.071365E-1,-6.1532176E-1],"categories":[],"categories_nodes":[],"categories_segments":[],"categories_sizes":[],"default_left":[true,true,true,true,true,true,true,false,false,false,false,false,false,false,false],"id":36,"left_children":[1,3,5,7,9,11,13,-1,-1,-1,-1,-1,-1,-1,-1],"loss_changes":[1.7078516E2,1.27481445E2,9.589844E0,9.6759766E1,1.5815918E1,1.011084E1,3.2226562E-1,0E0,0E0,0E0,0E0,0E0,0E0,0E0,0E0],"parents":[2147483647,0,0,1,1,2,2,3,3,4,4,5,5,6,6],"right_children":[2,4,6,8,10,12,14,-1,-1,-1,-1,-1,-1,-1,-1],"split_conditions":[5.148365E1,7.447687E1,6.510768E1,7.531738E-1,9.993572E1,7.3384705E1,7.5149734E1,-1.5326773E-2,-1.0234644E-2,-1.6381398E-2,-1.7977562E-2,-1.6713627E-2,-1.8197404E-2,-1.8214094E-2,-1.8459652E-2],"split_indices":[6,7,6,15,7,7,6,0,0,0,0,0,0,0,0],"split_type":[0,0,0,0,0,0,0,0,0,0,0,0,0,0,0],"sum_hessian":[1.2932789E5,3.9951883E4,8.937601E4,1.6462936E4,2.3488947E4,1.8057762E4,7.131824E4,1.1746395E4,4.71654E3,9.75724E3,1.3731707E4,6.9450977E3,1.1112664E4,1.2666133E4,5.8652113E4],"tree_param":{"num_deleted":"0","num_feature":"16","num_nodes":"15","size_leaf_vector":"0"}},{"base_weights":[-5.77823E-1,-5.1344043E-1,-5.9941214E-1,-4.4529152E-1,-5.6854635E-1,-5.7417625E-1,-6.081132E-1,-3.7025362E-1,-5.2605176E-1,-5.330162E-1,-5.951101E-1,-5.265934E-1,-5.944228E-1,-6.0087407E-1,-6.097659E-1],"categories":[],"categories_nodes":[],"categories_segments":[],"categories_sizes":[],"default_left":[true,true,true,true,true,true,true,false,false,false,false,false,false,false,false],"id":37,"left_children":[1,3,5,7,9,11,13,-1,-1,-1,-1,-1,-1,-1,-1],"loss_changes":[1.760586E2,1.1943164E2,2.0515625E1,8.618164E1,1.6310547E1,2.317334E1,4.8046875E-1,0E0,0E0,0E0,0E0,0E0,0E0,0E0,0E0],"parents":[2147483647,0,0,1,1,2,2,3,3,4,4,5,5,6,6],"right_children":[2,4,6,8,10,12,14,-1,-1,-1,-1,-1,-1,-1,-1],"split_conditions":[4.5702858E1,1.0255333E2,6.446443E1,5.54869E1,1.23859055E2,6.41726E1,7.514125E1,-1.1107609E-2,-1.5781552E-2,-1.5990486E-2,-1.7853303E-2,-1.5797801E-2,-1.7832683E-2,-1.8026222E-2,-1.8292977E-2],"split_indices":[6,12,6,8,12,7,6,0,0,0,0,0,0,0,0],"split_type":[0,0,0,0,0,0,0,0,0,0,0,0,0,0,0],"sum_hessian":[1.2688272E5,3.1868945E4,9.501377E4,1.4252335E4,1.7616611E4,2.4377691E4,7.063608E4,7.3907993E3,6.8615356E3,7.545399E3,1.0071212E4,7.284622E3,1.709307E4,1.3196428E4,5.743965E4],"tree_param":{"num_deleted":"0","num_feature":"16","num_nodes":"15","size_leaf_vector":"0"}},{"base_weights":[-5.715354E-1,-5.146695E-1,-5.9720045E-1,-4.46223E-1,-5.6493366E-1,-5.749588E-1,-6.0284454E-1,-3.8078964E-1,-5.4090893E-1,-5.3251356E-1,-5.872206E-1,-5.4240113E-1,-5.9464014E-1,-5.9572154E-1,-6.043748E-1],"categories":[],"categories_nodes":[],"categories_segments":[],"categories_sizes":[],"default_left":[true,true,true,true,true,true,true,false,false,false,false,false,false,false,false],"id":38,"left_children":[1,3,5,7,9,11,13,-1,-1,-1,-1,-1,-1,-1,-1],"loss_changes":[1.8135156E2,1.3293945E2,1.0419922E1,1.0138257E2,1.5812988E1,1.0813477E1,3.8671875E-1,0E0,0E0,0E0,0E0,0E0,0E0,0E0,0E0],"parents":[2147483647,0,0,1,1,2,2,3,3,4,4,5,5,6,6],"right_children":[2,4,6,8,10,12,14,-1,-1,-1,-1,-1,-1,-1,-1],"split_conditions":[5.148365E1,7.528543E1,6.510597E1,7.42392E1,9.993572E1,7.254071E1,7.515267E1,-1.1423689E-2,-1.6227268E-2,-1.5975406E-2,-1.7616618E-2,-1.6272034E-2,-1.7839205E-2,-1.7871646E-2,-1.8131245E-2],"split_indices":[6,7,6,0,7,7,6,0,0,0,0,0,0,0,0],"split_type":[0,0,0,0,0,0,0,0,0,0,0,0,0,0,0],"sum_hessian":[1.244677E5,3.8712797E4,8.575491E4,1.6395855E4,2.231694E4,1.7377725E4,6.837718E4,9.6986E3,6.6972563E3,9.101784E3,1.3215156E4,6.5579165E3,1.0819808E4,1.2160947E4,5.6216234E4],"tree_param":{"num_deleted":"0","num_feature":"16","num_nodes":"15","size_leaf_vector":"0"}},{"base_weights":[-5.653795E-1,-5.036875E-1,-5.9022295E-1,-4.3906328E-1,-5.6127125E-1,-5.651162E-1,-5.9739876E-1,-3.652961E-1,-5.2415544E-1,-5.710395E-1,-4.944304E-1,-5.211961E-1,-5.8533084E-1,-5.897577E-1,-5.991419E-1],"categories":[],"categories_nodes":[],"categories_segments":[],"categories_sizes":[],"default_left":[true,true,true,true,true,true,true,false,false,false,false,false,false,false,false],"id":39,"left_children":[1,3,5,7,9,11,13,-1,-1,-1,-1,-1,-1,-1,-1],"loss_changes":[1.868164E2,1.3020996E2,1.534375E1,1.03523926E2,1.1818848E1,1.6886719E1,5.488281E-1,0E0,0E0,0E0,0E0,0E0,0E0,0E0,0E0],"parents":[2147483647,0,0,1,1,2,2,3,3,4,4,5,5,6,6],"right_children":[2,4,6,8,10,12,14,-1,-1,-1,-1,-1,-1,-1,-1],"split_conditions":[4.9051773E1,7.985626E1,6.449103E1,5.4982246E1,8.503418E-1,6.5841995E1,7.5145386E1,-1.0958883E-2,-1.5724663E-2,-1.7131185E-2,-1.4832911E-2,-1.5635883E-2,-1.7559925E-2,-1.769273E-2,-1.7974256E-2],"split_indices":[6,7,6,8,15,7,6,0,0,0,0,0,0,0,0],"split_type":[0,0,0,0,0,0,0,0,0,0,0,0,0,0,0],"sum_hessian":[1.2208528E5,3.505551E4,8.7029766E4,1.6522045E4,1.8533467E4,1.9362834E4,6.766693E4,8.852778E3,7.669266E3,1.61637295E4,2.3697373E3,6.1114053E3,1.325143E4,1.2632541E4,5.503439E4],"tree_param":{"num_deleted":"0","num_feature":"16","num_nodes":"15","size_leaf_vector":"0"}},{"base_weights":[-5.593575E-1,-5.0000525E-1,-5.8642656E-1,-4.3832693E-1,-5.5995756E-1,-5.6283164E-1,-5.9243816E-1,-4.9252078E-1,-3.3598587E-1,-5.7542855E-1,-5.1348203E-1,-5.292927E-1,-5.8400875E-1,-5.848838E-1,-5.940603E-1],"categories":[],"categories_nodes":[],"categories_segments":[],"categories_sizes":[],"default_left":[true,true,true,true,true,true,true,false,false,false,false,false,false,false,false],"id":40,"left_children":[1,3,5,7,9,11,13,-1,-1,-1,-1,-1,-1,-1,-1],"loss_changes":[1.9207422E2,1.3845898E2,1.1330078E1,1.0240503E2,1.3378418E1,1.1563477E1,4.5703125E-1,0E0,0E0,0E0,0E0,0E0,0E0,0E0,0E0],"parents":[2147483647,0,0,1,1,2,2,3,3,4,4,5,5,6,6],"right_children":[2,4,6,8,10,12,14,-1,-1,-1,-1,-1,-1,-1,-1],"split_conditions":[5.148365E1,1.0672259E2,6.510579E1,7.219238E-1,2.7551093E0,7.3384705E1,7.513919E1,-1.4775623E-2,-1.0079576E-2,-1.7262856E-2,-1.5404461E-2,-1.587878E-2,-1.7520262E-2,-1.7546514E-2,-1.782181E-2],"split_indices":[6,12,6,15,3,7,6,0,0,0,0,0,0,0,0],"split_type":[0,0,0,0,0,0,0,0,0,0,0,0,0,0,0],"sum_hessian":[1.1973423E5,3.7509418E4,8.2224805E4,1.8492664E4,1.9016754E4,1.6715049E4,6.550976E4,1.2087839E4,6.4048257E3,1.4258831E4,4.757922E3,6.4794004E3,1.0235647E4,1.1643963E4,5.3865797E4],"tree_param":{"num_deleted":"0","num_feature":"16","num_nodes":"15","size_leaf_vector":"0"}},{"base_weights":[-5.534442E-1,-4.8326048E-1,-5.774864E-1,-4.1764784E-1,-5.492241E-1,-5.4941857E-1,-5.872671E-1,-4.7455648E-1,-2.9313394E-1,-5.5952597E-1,-4.7461495E-1,-4.9742034E-1,-5.719156E-1,-5.791651E-1,-5.8912325E-1],"categories":[],"categories_nodes":[],"categories_segments":[],"categories_sizes":[],"default_left":[true,true,true,true,true,true,true,false,false,false,false,false,false,false,false],"id":41,"left_children":[1,3,5,7,9,11,13,-1,-1,-1,-1,-1,-1,-1,-1],"loss_changes":[1.9785156E2,1.2946631E2,2.36875E1,1.0634326E2,1.1217773E1,2.6170898E1,6.347656E-1,0E0,0E0,0E0,0E0,0E0,0E0,0E0,0E0],"parents":[2147483647,0,0,1,1,2,2,3,3,4,4,5,5,6,6],"right_children":[2,4,6,8,10,12,14,-1,-1,-1,-1,-1,-1,-1,-1],"split_conditions":[4.5702858E1,8.252068E1,6.446443E1,7.385254E-1,8.557129E-1,6.41726E1,7.514731E1,-1.4236694E-2,-8.794018E-3,-1.6785778E-2,-1.4238448E-2,-1.492261E-2,-1.7157469E-2,-1.7374953E-2,-1.7673697E-2],"split_indices":[6,7,6,15,15,7,6,0,0,0,0,0,0,0,0],"split_type":[0,0,0,0,0,0,0,0,0,0,0,0,0,0,0],"sum_hessian":[1.1741916E5,2.9965412E4,8.745374E4,1.5026348E4,1.4939063E4,2.2614287E4,6.4839457E4,1.0310953E4,4.715395E3,1.3120859E4,1.818204E3,6.836339E3,1.5777947E4,1.2144078E4,5.269538E4],"tree_param":{"num_deleted":"0","num_feature":"16","num_nodes":"15","size_leaf_vector":"0"}},{"base_weights":[-5.4765517E-1,-4.8572916E-1,-5.7621086E-1,-4.3023747E-1,-5.572144E-1,-5.512285E-1,-5.826049E-1,-3.5761902E-1,-5.0848514E-1,-5.712129E-1,-5.1500696E-1,-5.1609683E-1,-5.735718E-1,-5.746121E-1,-5.8432525E-1],"categories":[],"categories_nodes":[],"categories_segments":[],"categories_sizes":[],"default_left":[true,true,true,true,true,true,true,false,false,false,false,false,false,false,false],"id":42,"left_children":[1,3,5,7,9,11,13,-1,-1,-1,-1,-1,-1,-1,-1],"loss_changes":[2.0332422E2,1.4392773E2,1.2267578E1,1.16104004E2,9.087891E0,1.2322266E1,5.2734375E-1,0E0,0E0,0E0,0E0,0E0,0E0,0E0,0E0],"parents":[2147483647,0,0,1,1,2,2,3,3,4,4,5,5,6,6],"right_children":[2,4,6,8,10,12,14,-1,-1,-1,-1,-1,-1,-1,-1],"split_conditions":[5.148365E1,1.1257789E2,6.510768E1,5.567028E1,2.7551093E0,7.3384705E1,7.5147644E1,-1.0728571E-2,-1.5254553E-2,-1.7136386E-2,-1.5450208E-2,-1.5482904E-2,-1.7207153E-2,-1.7238362E-2,-1.7529758E-2],"split_indices":[6,12,6,8,3,7,6,0,0,0,0,0,0,0,0],"split_type":[0,0,0,0,0,0,0,0,0,0,0,0,0,0,0],"sum_hessian":[1.1513615E5,3.6342246E4,7.879391E4,2.0463842E4,1.5878402E4,1.6074839E4,6.2719066E4,1.061659E4,9.847253E3,1.1914353E4,3.9640496E3,6.258428E3,9.81641E3,1.116776E4,5.1551305E4],"tree_param":{"num_deleted":"0","num_feature":"16","num_nodes":"15","size_leaf_vector":"0"}},{"base_weights":[-5.419731E-1,-4.7488073E-1,-5.696021E-1,-4.062989E-1,-5.374946E-1,-5.4154646E-1,-5.7770014E-1,-3.2921913E-1,-4.9703553E-1,-5.0150794E-1,-5.595892E-1,-4.9342796E-1,-5.640562E-1,-5.6913614E-1,-5.7966065E-1],"categories":[],"categories_nodes":[],"categories_segments":[],"categories_sizes":[],"default_left":[true,true,true,true,true,true,true,false,false,false,false,false,false,false,false],"id":43,"left_children":[1,3,5,7,9,11,13,-1,-1,-1,-1,-1,-1,-1,-1],"loss_changes":[2.0899219E2,1.4120752E2,1.7853516E1,1.0979639E2,1.3405762E1,1.9136719E1,7.128906E-1,0E0,0E0,0E0,0E0,0E0,0E0,0E0,0E0],"parents":[2147483647,0,0,1,1,2,2,3,3,4,4,5,5,6,6],"right_children":[2,4,6,8,10,12,14,-1,-1,-1,-1,-1,-1,-1,-1],"split_conditions":[4.9051773E1,7.985626E1,6.449132E1,5.4982246E1,1.0135702E2,6.5841995E1,7.51503E1,-9.876573E-3,-1.4911066E-2,-1.5045238E-2,-1.6787676E-2,-1.4802839E-2,-1.6921686E-2,-1.7074084E-2,-1.7389819E-2],"split_indices":[6,7,6,8,7,7,6,0,0,0,0,0,0,0,0],"split_type":[0,0,0,0,0,0,0,0,0,0,0,0,0,0,0],"sum_hessian":[1.12888055E5,3.2933266E4,7.995479E4,1.5721156E4,1.721211E4,1.7924186E4,6.20306E4,8.502772E3,7.218384E3,6.556648E3,1.0655461E4,5.719878E3,1.2204308E4,1.1609593E4,5.042101E4],"tree_param":{"num_deleted":"0","num_feature":"16","num_nodes":"15","size_leaf_vector":"0"}},{"base_weights":[-5.364017E-1,-4.719021E-1,-5.6649137E-1,-3.824592E-1,-5.1935613E-1,-5.4001546E-1,-5.732981E-1,-4.5217592E-1,-2.5673768E-1,-4.8149252E-1,-5.535369E-1,-5.032019E-1,-5.636032E-1,-5.648271E-1,-5.751237E-1],"categories":[],"categories_nodes":[],"categories_segments":[],"categories_sizes":[],"default_left":[true,true,true,true,true,true,true,false,false,false,false,false,false,false,false],"id":44,"left_children":[1,3,5,7,9,11,13,-1,-1,-1,-1,-1,-1,-1,-1],"loss_changes":[2.1452539E2,1.492583E2,1.3291016E1,1.0690222E2,2.9504883E1,1.31328125E1,6.035156E-1,0E0,0E0,0E0,0E0,0E0,0E0,0E0,0E0],"parents":[2147483647,0,0,1,1,2,2,3,3,4,4,5,5,6,6],"right_children":[2,4,6,8,10,12,14,-1,-1,-1,-1,-1,-1,-1,-1],"split_conditions":[5.148365E1,6.724599E1,6.510597E1,2.726283E0,1.171616E2,7.3384705E1,7.51448E1,-1.3565277E-2,-7.7021304E-3,-1.4444775E-2,-1.6606105E-2,-1.5096056E-2,-1.6908096E-2,-1.6944813E-2,-1.7253712E-2],"split_indices":[6,7,6,3,12,7,6,0,0,0,0,0,0,0,0],"split_type":[0,0,0,0,0,0,0,0,0,0,0,0,0,0,0],"sum_hessian":[1.1067338E5,3.521151E4,7.5461875E4,1.2208885E4,2.3002627E4,1.5449368E4,6.0012508E4,7.8520605E3,4.3568237E3,1.0920523E4,1.2082104E4,6.041966E3,9.407402E3,1.0695429E4,4.931708E4],"tree_param":{"num_deleted":"0","num_feature":"16","num_nodes":"15","size_leaf_vector":"0"}},{"base_weights":[-5.309222E-1,-4.5307618E-1,-5.5704623E-1,-3.883835E-1,-5.3052485E-1,-5.1762706E-1,-5.662848E-1,-4.608853E-1,-2.893146E-1,-5.483496E-1,-4.7566962E-1,-4.6372014E-1,-5.524029E-1,-5.487848E-1,-5.696098E-1],"categories":[],"categories_nodes":[],"categories_segments":[],"categories_sizes":[],"default_left":[true,true,true,true,true,true,true,false,false,false,false,false,false,false,false],"id":45,"left_children":[1,3,5,7,9,11,13,-1,-1,-1,-1,-1,-1,-1,-1],"loss_changes":[2.2039258E2,1.3640967E2,2.9289062E1,1.0660498E2,1.1870605E1,2.867871E1,3.5175781E0,0E0,0E0,0E0,0E0,0E0,0E0,0E0,0E0],"parents":[2147483647,0,0,1,1,2,2,3,3,4,4,5,5,6,6],"right_children":[2,4,6,8,10,12,14,-1,-1,-1,-1,-1,-1,-1,-1],"split_conditions":[4.489916E1,1.0964787E2,5.8672287E1,6.8188477E-1,2.7628782E0,7.234205E1,6.834006E1,-1.3826558E-2,-8.679437E-3,-1.6450489E-2,-1.4270089E-2,-1.3911604E-2,-1.6572086E-2,-1.6463544E-2,-1.7088294E-2],"split_indices":[6,12,6,15,3,7,6,0,0,0,0,0,0,0,0],"split_type":[0,0,0,0,0,0,0,0,0,0,0,0,0,0,0],"sum_hessian":[1.0849524E5,2.726569E4,8.122955E4,1.4859559E4,1.2406132E4,1.5433729E4,6.579582E4,8.578147E3,6.2814116E3,9.356743E3,3.0493884E3,6.0577705E3,9.375958E3,1.0531781E4,5.526404E4],"tree_param":{"num_deleted":"0","num_feature":"16","num_nodes":"15","size_leaf_vector":"0"}},{"base_weights":[-5.255317E-1,-4.619871E-1,-5.590192E-1,-3.8648856E-1,-5.1990277E-1,-5.33412E-1,-5.6447786E-1,-3.1492773E-1,-4.9226728E-1,-4.8271874E-1,-5.459157E-1,-4.879985E-1,-5.5147535E-1,-5.5547005E-1,-5.664219E-1],"categories":[],"categories_nodes":[],"categories_segments":[],"categories_sizes":[],"default_left":[true,true,true,true,true,true,true,false,false,false,false,false,false,false,false],"id":46,"left_children":[1,3,5,7,9,11,13,-1,-1,-1,-1,-1,-1,-1,-1],"loss_changes":[2.260586E2,1.6031738E2,9.435547E0,1.2050537E2,1.9828125E1,9.784424E0,6.9140625E-1,0E0,0E0,0E0,0E0,0E0,0E0,0E0,0E0],"parents":[2147483647,0,0,1,1,2,2,3,3,4,4,5,5,6,6],"right_children":[2,4,6,8,10,12,14,-1,-1,-1,-1,-1,-1,-1,-1],"split_conditions":[5.382254E1,7.524016E1,6.51055E1,7.42392E1,9.993572E1,6.2554432E1,7.514421E1,-9.447832E-3,-1.4768018E-2,-1.4481562E-2,-1.6377471E-2,-1.4639954E-2,-1.654426E-2,-1.66641E-2,-1.6992657E-2],"split_indices":[6,7,6,0,7,7,6,0,0,0,0,0,0,0,0],"split_type":[0,0,0,0,0,0,0,0,0,0,0,0,0,0,0],"sum_hessian":[1.0635341E5,3.670954E4,6.964387E4,1.5939092E4,2.0770445E4,1.2254671E4,5.7389195E4,9.509654E3,6.429438E3,8.557524E3,1.2212921E4,3.495243E3,8.759428E3,1.0237977E4,4.715122E4],"tree_param":{"num_deleted":"0","num_feature":"16","num_nodes":"15","size_leaf_vector":"0"}},{"base_weights":[-5.202324E-1,-4.4754952E-1,-5.5090636E-1,-3.7977E-1,-5.192708E-1,-5.1966655E-1,-5.6002456E-1,-2.7718222E-1,-4.5441324E-1,-5.30276E-1,-4.4077113E-1,-4.5361093E-1,-5.395616E-1,-5.5036914E-1,-5.622393E-1],"categories":[],"categories_nodes":[],"categories_segments":[],"categories_sizes":[],"default_left":[true,true,true,true,true,true,true,false,false,false,false,false,false,false,false],"id":47,"left_children":[1,3,5,7,9,11,13,-1,-1,-1,-1,-1,-1,-1,-1],"loss_changes":[2.3217188E2,1.5022705E2,2.0591797E1,1.2172583E2,1.2752441E1,2.1539062E1,9.042969E-1,0E0,0E0,0E0,0E0,0E0,0E0,0E0,0E0],"parents":[2147483647,0,0,1,1,2,2,3,3,4,4,5,5,6,6],"right_children":[2,4,6,8,10,12,14,-1,-1,-1,-1,-1,-1,-1,-1],"split_conditions":[4.9051773E1,8.289508E1,6.449103E1,4.6730022E1,8.557129E-1,5.642872E1,7.513962E1,-8.315466E-3,-1.3632397E-2,-1.590828E-2,-1.3223134E-2,-1.3608327E-2,-1.6186848E-2,-1.6511073E-2,-1.6867178E-2],"split_indices":[6,7,6,8,15,7,6,0,0,0,0,0,0,0,0],"split_type":[0,0,0,0,0,0,0,0,0,0,0,0,0,0,0],"sum_hessian":[1.0424675E5,3.0942701E4,7.330405E4,1.5911748E4,1.5030954E4,1.657494E4,5.672911E4,6.703431E3,9.208317E3,1.317775E4,1.853204E3,3.8421182E3,1.2732821E4,1.0631133E4,4.6097977E4],"tree_param":{"num_deleted":"0","num_feature":"16","num_nodes":"15","size_leaf_vector":"0"}},{"base_weights":[-5.150223E-1,-4.4521108E-1,-5.4841113E-1,-3.84994E-1,-5.2564085E-1,-5.188049E-1,-5.561014E-1,-3.0757812E-1,-4.7082335E-1,-5.4178977E-1,-4.7760466E-1,-4.7835788E-1,-5.451163E-1,-5.465529E-1,-5.5816555E-1],"categories":[],"categories_nodes":[],"categories_segments":[],"categories_sizes":[],"default_left":[true,true,true,true,true,true,true,false,false,false,false,false,false,false,false],"id":48,"left_children":[1,3,5,7,9,11,13,-1,-1,-1,-1,-1,-1,-1,-1],"loss_changes":[2.3791992E2,1.5992871E2,1.5447266E1,1.25509766E2,1.0719971E1,1.4921143E1,7.7734375E-1,0E0,0E0,0E0,0E0,0E0,0E0,0E0,0E0],"parents":[2147483647,0,0,1,1,2,2,3,3,4,4,5,5,6,6],"right_children":[2,4,6,8,10,12,14,-1,-1,-1,-1,-1,-1,-1,-1],"split_conditions":[5.148365E1,1.1257789E2,6.510678E1,5.567028E1,2.7551093E0,7.3384705E1,7.514458E1,-9.227343E-3,-1.41247E-2,-1.6253693E-2,-1.432814E-2,-1.43507365E-2,-1.6353488E-2,-1.6396586E-2,-1.6744966E-2],"split_indices":[6,12,6,8,3,7,6,0,0,0,0,0,0,0,0],"split_type":[0,0,0,0,0,0,0,0,0,0,0,0,0,0,0],"sum_hessian":[1.02174875E5,3.3061793E4,6.911308E4,1.8909895E4,1.4151897E4,1.426473E4,5.484835E4,9.944654E3,8.96524E3,1.0583601E4,3.568297E3,5.629688E3,8.635042E3,9.79655E3,4.50518E4],"tree_param":{"num_deleted":"0","num_feature":"16","num_nodes":"15","size_leaf_vector":"0"}},{"base_weights":[-5.0988734E-1,-4.4251817E-1,-5.4607224E-1,-3.643332E-1,-5.037434E-1,-5.181494E-1,-5.520694E-1,-4.2221066E-1,-2.2631349E-1,-4.6422955E-1,-5.3163016E-1,-4.6955484E-1,-5.377238E-1,-5.4222757E-1,-5.5419725E-1],"categories":[],"categories_nodes":[],"categories_segments":[],"categories_sizes":[],"default_left":[true,true,true,true,true,true,true,false,false,false,false,false,false,false,false],"id":49,"left_children":[1,3,5,7,9,11,13,-1,-1,-1,-1,-1,-1,-1,-1],"loss_changes":[2.43875E2,1.6734619E2,1.0625E1,1.2271216E2,2.137793E1,1.071875E1,8.232422E-1,0E0,0E0,0E0,0E0,0E0,0E0,0E0,0E0],"parents":[2147483647,0,0,1,1,2,2,3,3,4,4,5,5,6,6],"right_children":[2,4,6,8,10,12,14,-1,-1,-1,-1,-1,-1,-1,-1],"split_conditions":[5.382254E1,7.524016E1,6.510678E1,7.5268555E-1,9.993572E1,6.2554432E1,7.513837E1,-1.26663195E-2,-6.7894044E-3,-1.3926886E-2,-1.5948905E-2,-1.4086645E-2,-1.6131712E-2,-1.6266827E-2,-1.6625917E-2],"split_indices":[6,7,6,15,7,7,6,0,0,0,0,0,0,0,0],"split_type":[0,0,0,0,0,0,0,0,0,0,0,0,0,0,0],"sum_hessian":[1.001398E5,3.4996484E4,6.5143312E4,1.5372568E4,1.9623914E4,1.1533082E4,5.361023E4,1.082932E4,4.5432485E3,8.1266274E3,1.1497287E4,3.3188457E3,8.214236E3,9.575471E3,4.4034758E4],"tree_param":{"num_deleted":"0","num_feature":"16","num_nodes":"15","size_leaf_vector":"0"}},{"base_weights":[-5.048257E-1,-4.2088693E-1,-5.352281E-1,-3.5285068E-1,-5.04746E-1,-4.999391E-1,-5.4789567E-1,-2.6020157E-1,-4.377979E-1,-5.246401E-1,-4.4521156E-1,-4.4161955E-1,-5.30119E-1,-5.3734446E-1,-5.503296E-1],"categories":[],"categories_nodes":[],"categories_segments":[],"categories_sizes":[],"default_left":[true,true,true,true,true,true,true,false,false,false,false,false,false,false,false],"id":50,"left_children":[1,3,5,7,9,11,13,-1,-1,-1,-1,-1,-1,-1,-1],"loss_changes":[2.5022852E2,1.487334E2,3.193164E1,1.1331763E2,1.3609375E1,3.3280273E1,1.0664062E0,0E0,0E0,0E0,0E0,0E0,0E0,0E0,0E0],"parents":[2147483647,0,0,1,1,2,2,3,3,4,4,5,5,6,6],"right_children":[2,4,6,8,10,12,14,-1,-1,-1,-1,-1,-1,-1,-1],"split_conditions":[4.5702858E1,1.0964787E2,6.446518E1,5.1602295E1,2.756415E0,6.726985E1,7.5141785E1,-7.806047E-3,-1.3133937E-2,-1.5739202E-2,-1.3356347E-2,-1.3248586E-2,-1.590357E-2,-1.6120333E-2,-1.6509889E-2],"split_indices":[6,12,6,8,3,7,6,0,0,0,0,0,0,0,0],"split_type":[0,0,0,0,0,0,0,0,0,0,0,0,0,0,0],"sum_hessian":[9.8141016E4,2.609882E4,7.2042195E4,1.4411635E4,1.1687186E4,1.9040422E4,5.3001773E4,6.895265E3,7.516369E3,8.754102E3,2.9330842E3,6.498457E3,1.2541966E4,9.976294E3,4.3025477E4],"tree_param":{"num_deleted":"0","num_feature":"16","num_nodes":"15","size_leaf_vector":"0"}},{"base_weights":[-4.9984097E-1,-4.2988294E-1,-5.379233E-1,-3.4998813E-1,-4.9333948E-1,-5.083927E-1,-5.4429996E-1,-2.7522928E-1,-4.6283343E-1,-4.522344E-1,-5.2253246E-1,-4.5777106E-1,-5.289826E-1,-5.338691E-1,-5.4655993E-1],"categories":[],"categories_nodes":[],"categories_segments":[],"categories_sizes":[],"default_left":[true,true,true,true,true,true,true,false,false,false,false,false,false,false,false],"id":51,"left_children":[1,3,5,7,9,11,13,-1,-1,-1,-1,-1,-1,-1,-1],"loss_changes":[2.560039E2,1.7172559E2,1.1451172E1,1.2652063E2,2.2437012E1,1.1300293E1,9.160156E-1,0E0,0E0,0E0,0E0,0E0,0E0,0E0,0E0],"parents":[2147483647,0,0,1,1,2,2,3,3,4,4,5,5,6,6],"right_children":[2,4,6,8,10,12,14,-1,-1,-1,-1,-1,-1,-1,-1],"split_conditions":[5.382254E1,7.524016E1,6.510579E1,7.42392E1,9.993572E1,6.2554432E1,7.514016E1,-8.256878E-3,-1.3885003E-2,-1.3567031E-2,-1.5675973E-2,-1.3733132E-2,-1.5869478E-2,-1.6016072E-2,-1.6396798E-2],"split_indices":[6,7,6,0,7,7,6,0,0,0,0,0,0,0,0],"split_type":[0,0,0,0,0,0,0,0,0,0,0,0,0,0,0],"sum_hessian":[9.61772E4,3.39051E4,6.22721E4,1.5011468E4,1.8893635E4,1.1073094E4,5.1199008E4,9.031577E3,5.97989E3,7.852895E3,1.1040739E4,3.2083535E3,7.86474E3,9.159594E3,4.2039414E4],"tree_param":{"num_deleted":"0","num_feature":"16","num_nodes":"15","size_leaf_vector":"0"}},{"base_weights":[-4.9491906E-1,-4.1967264E-1,-5.318989E-1,-3.5678035E-1,-5.0602245E-1,-4.9897385E-1,-5.4055405E-1,-4.1318187E-1,-2.2721836E-1,-5.2377474E-1,-4.5378742E-1,-4.55011E-1,-5.2809507E-1,-5.298098E-1,-5.428839E-1],"categories":[],"categories_nodes":[],"categories_segments":[],"categories_sizes":[],"default_left":[true,true,true,true,true,true,true,false,false,false,false,false,false,false,false],"id":52,"left_children":[1,3,5,7,9,11,13,-1,-1,-1,-1,-1,-1,-1,-1],"loss_changes":[2.6204102E2,1.6850684E2,1.7738281E1,1.312605E2,1.1898193E1,1.661621E1,9.6484375E-1,0E0,0E0,0E0,0E0,0E0,0E0,0E0,0E0],"parents":[2147483647,0,0,1,1,2,2,3,3,4,4,5,5,6,6],"right_children":[2,4,6,8,10,12,14,-1,-1,-1,-1,-1,-1,-1,-1],"split_conditions":[5.148365E1,1.1257789E2,6.5106964E1,7.507324E-1,2.7551093E0,7.3384705E1,7.514016E1,-1.23954555E-2,-6.8165506E-3,-1.5713243E-2,-1.3613623E-2,-1.365033E-2,-1.5842851E-2,-1.5894292E-2,-1.6286517E-2],"split_indices":[6,12,6,15,3,7,6,0,0,0,0,0,0,0,0],"split_type":[0,0,0,0,0,0,0,0,0,0,0,0,0,0,0],"sum_hessian":[9.425017E4,3.1060596E4,6.318958E4,1.7974281E4,1.30863125E4,1.316541E4,5.0024168E4,1.2521273E4,5.453009E3,9.760235E3,3.3260774E3,5.252545E3,7.912865E3,8.955124E3,4.1069047E4],"tree_param":{"num_deleted":"0","num_feature":"16","num_nodes":"15","size_leaf_vector":"0"}},{"base_weights":[-4.900542E-1,-4.175153E-1,-5.301075E-1,-3.3595824E-1,-4.8334387E-1,-4.9883887E-1,-5.368967E-1,-3.7139365E-1,-8.8138476E-2,-4.419527E-1,-5.1480436E-1,-4.4595328E-1,-5.2055323E-1,-5.258324E-1,-5.3929853E-1],"categories":[],"categories_nodes":[],"categories_segments":[],"categories_sizes":[],"default_left":[true,true,true,true,true,true,true,false,false,false,false,false,false,false,false],"id":53,"left_children":[1,3,5,7,9,11,13,-1,-1,-1,-1,-1,-1,-1,-1],"loss_changes":[2.6812695E2,1.7626172E2,1.2363281E1,1.2888464E2,2.344873E1,1.1973389E1,1.015625E0,0E0,0E0,0E0,0E0,0E0,0E0,0E0,0E0],"parents":[2147483647,0,0,1,1,2,2,3,3,4,4,5,5,6,6],"right_children":[2,4,6,8,10,12,14,-1,-1,-1,-1,-1,-1,-1,-1],"split_conditions":[5.382254E1,7.528543E1,6.51055E1,3.1568546E0,1.0105504E2,6.2554432E1,7.514E1,-1.114181E-2,-2.6441542E-3,-1.3258581E-2,-1.5444131E-2,-1.3378598E-2,-1.5616597E-2,-1.5774973E-2,-1.6178956E-2],"split_indices":[6,7,6,3,7,7,6,0,0,0,0,0,0,0,0],"split_type":[0,0,0,0,0,0,0,0,0,0,0,0,0,0,0],"sum_hessian":[9.2360195E4,3.2860086E4,5.9500113E4,1.4679406E4,1.818068E4,1.0627639E4,4.8872473E4,1.2842566E4,1.8368396E3,7.8577056E3,1.0322974E4,3.0997368E3,7.5279023E3,8.75604E3,4.0116434E4],"tree_param":{"num_deleted":"0","num_feature":"16","num_nodes":"15","size_leaf_vector":"0"}},{"base_weights":[-4.8525313E-1,-3.9499038E-1,-5.188851E-1,-3.195804E-1,-4.7931504E-1,-4.8008373E-1,-5.330667E-1,-2.3055147E-1,-4.289744E-1,-4.9362528E-1,-3.7915692E-1,-4.131441E-1,-5.1104814E-1,-5.212319E-1,-5.3580064E-1],"categories":[],"categories_nodes":[],"categories_segments":[],"categories_sizes":[],"default_left":[true,true,true,true,true,true,true,false,false,false,false,false,false,false,false],"id":54,"left_children":[1,3,5,7,9,11,13,-1,-1,-1,-1,-1,-1,-1,-1],"loss_changes":[2.7454492E2,1.561023E2,3.6027344E1,1.2626782E2,1.6437012E1,3.6389893E1,1.2832031E0,0E0,0E0,0E0,0E0,0E0,0E0,0E0,0E0],"parents":[2147483647,0,0,1,1,2,2,3,3,4,4,5,5,6,6],"right_children":[2,4,6,8,10,12,14,-1,-1,-1,-1,-1,-1,-1,-1],"split_conditions":[4.5702858E1,8.289508E1,6.4490456E1,5.471183E1,8.557129E-1,6.41726E1,7.514016E1,-6.916544E-3,-1.2869231E-2,-1.4808758E-2,-1.1374707E-2,-1.2394323E-2,-1.5331443E-2,-1.5636956E-2,-1.6074019E-2],"split_indices":[6,7,6,8,15,7,6,0,0,0,0,0,0,0,0],"split_type":[0,0,0,0,0,0,0,0,0,0,0,0,0,0,0],"sum_hessian":[9.050522E4,2.457165E4,6.593356E4,1.2974018E4,1.1597633E4,1.7657355E4,4.827621E4,7.154513E3,5.819505E3,1.0144319E4,1.4533126E3,5.589081E3,1.2068274E4,9.095276E3,3.9180934E4],"tree_param":{"num_deleted":"0","num_feature":"16","num_nodes":"15","size_leaf_vector":"0"}},{"base_weights":[-4.8052353E-1,-4.0539092E-1,-5.2262175E-1,-3.4097752E-1,-4.9383903E-1,-4.896016E-1,-5.2983505E-1,-4.1630465E-1,-2.3963271E-1,-5.1257026E-1,-4.3935022E-1,-4.2546782E-1,-5.0912076E-1,-5.1810133E-1,-5.323871E-1],"categories":[],"categories_nodes":[],"categories_segments":[],"categories_sizes":[],"default_left":[true,true,true,true,true,true,true,false,false,false,false,false,false,false,false],"id":55,"left_children":[1,3,5,7,9,11,13,-1,-1,-1,-1,-1,-1,-1,-1],"loss_changes":[2.8029102E2,1.8129736E2,1.327832E1,1.4061792E2,1.3471436E1,1.255542E1,1.1210938E0,0E0,0E0,0E0,0E0,0E0,0E0,0E0,0E0],"parents":[2147483647,0,0,1,1,2,2,3,3,4,4,5,5,6,6],"right_children":[2,4,6,8,10,12,14,-1,-1,-1,-1,-1,-1,-1,-1],"split_conditions":[5.382254E1,1.1257789E2,6.510522E1,6.8237305E-1,2.7551093E0,5.6418602E1,7.513872E1,-1.2489139E-2,-7.188981E-3,-1.5377107E-2,-1.3180506E-2,-1.2764034E-2,-1.5273622E-2,-1.554304E-2,-1.5971612E-2],"split_indices":[6,12,6,15,3,7,6,0,0,0,0,0,0,0,0],"split_type":[0,0,0,0,0,0,0,0,0,0,0,0,0,0,0],"sum_hessian":[8.868319E4,3.1850443E4,5.6832742E4,1.8431988E4,1.3418455E4,1.0201626E4,4.6631113E4,1.0571411E4,7.860577E3,9.979477E3,3.4389785E3,2.3857153E3,7.8159106E3,8.366686E3,3.826443E4],"tree_param":{"num_deleted":"0","num_feature":"16","num_nodes":"15","size_leaf_vector":"0"}},{"base_weights":[-4.7582725E-1,-3.9018023E-1,-5.143409E-1,-3.2417047E-1,-4.8527318E-1,-4.75145E-1,-5.2614933E-1,-2.3890159E-1,-4.216633E-1,-5.0577545E-1,-4.253135E-1,-4.1708043E-1,-5.0876635E-1,-5.135963E-1,-5.2905494E-1],"categories":[],"categories_nodes":[],"categories_segments":[],"categories_sizes":[],"default_left":[true,true,true,true,true,true,true,false,false,false,false,false,false,false,false],"id":56,"left_children":[1,3,5,7,9,11,13,-1,-1,-1,-1,-1,-1,-1,-1],"loss_changes":[2.8644922E2,1.6907373E2,2.749414E1,1.322157E2,1.3362305E1,2.6899902E1,1.4091797E0,0E0,0E0,0E0,0E0,0E0,0E0,0E0,0E0],"parents":[2147483647,0,0,1,1,2,2,3,3,4,4,5,5,6,6],"right_children":[2,4,6,8,10,12,14,-1,-1,-1,-1,-1,-1,-1,-1],"split_conditions":[4.9051773E1,1.12577896E2,6.4490456E1,5.54869E1,2.7551093E0,6.928527E1,7.513806E1,-7.1670474E-3,-1.2649899E-2,-1.5173263E-2,-1.2759405E-2,-1.2512413E-2,-1.526299E-2,-1.5407888E-2,-1.5871648E-2],"split_indices":[6,12,6,8,3,7,6,0,0,0,0,0,0,0,0],"split_type":[0,0,0,0,0,0,0,0,0,0,0,0,0,0,0],"sum_hessian":[8.690016E4,2.6959184E4,5.994097E4,1.5915605E4,1.1043578E4,1.3886963E4,4.6054008E4,8.491898E3,7.4237065E3,8.224057E3,2.819522E3,5.097281E3,8.789682E3,8.689742E3,3.7364266E4],"tree_param":{"num_deleted":"0","num_feature":"16","num_nodes":"15","size_leaf_vector":"0"}},{"base_weights":[-4.7119647E-1,-3.9348137E-1,-5.154211E-1,-3.1600183E-1,-4.7086754E-1,-4.805378E-1,-5.2308965E-1,-2.4067517E-1,-4.339836E-1,-4.2645043E-1,-4.9843854E-1,-4.2331165E-1,-5.045357E-1,-5.1064855E-1,-5.2580154E-1],"categories":[],"categories_nodes":[],"categories_segments":[],"categories_sizes":[],"default_left":[true,true,true,true,true,true,true,false,false,false,false,false,false,false,false],"id":57,"left_children":[1,3,5,7,9,11,13,-1,-1,-1,-1,-1,-1,-1,-1],"loss_changes":[2.9245312E2,1.8504102E2,1.4265625E1,1.370857E2,1.8708252E1,1.3233398E1,1.2324219E0,0E0,0E0,0E0,0E0,0E0,0E0,0E0,0E0],"parents":[2147483647,0,0,1,1,2,2,3,3,4,4,5,5,6,6],"right_children":[2,4,6,8,10,12,14,-1,-1,-1,-1,-1,-1,-1,-1],"split_conditions":[5.382254E1,7.985626E1,6.51055E1,7.42392E1,1.0105504E2,6.2554432E1,7.513938E1,-7.2202547E-3,-1.3019508E-2,-1.2793513E-2,-1.4953156E-2,-1.2699349E-2,-1.513607E-2,-1.5319456E-2,-1.5774045E-2],"split_indices":[6,7,6,0,7,7,6,0,0,0,0,0,0,0,0],"split_type":[0,0,0,0,0,0,0,0,0,0,0,0,0,0,0],"sum_hessian":[8.514957E4,3.088529E4,5.426428E4,1.5435874E4,1.5449416E4,9.790799E3,4.447348E4,9.422817E3,6.013056E3,5.923341E3,9.526075E3,2.8982258E3,6.892573E3,7.9932505E3,3.648023E4],"tree_param":{"num_deleted":"0","num_feature":"16","num_nodes":"15","size_leaf_vector":"0"}},{"base_weights":[-4.6660814E-1,-3.9098778E-1,-5.1394975E-1,-3.1578153E-1,-4.7046167E-1,-4.854698E-1,-5.2083343E-1,-3.948697E-1,-2.1139568E-1,-4.2903367E-1,-5.0519186E-1,-4.3250257E-1,-5.068669E-1,-5.095405E-1,-5.226241E-1],"categories":[],"categories_nodes":[],"categories_segments":[],"categories_sizes":[],"default_left":[true,true,true,true,true,true,true,false,false,false,false,false,false,false,false],"id":58,"left_children":[1,3,5,7,9,11,13,-1,-1,-1,-1,-1,-1,-1,-1],"loss_changes":[2.9849805E2,1.9187744E2,9.806641E0,1.3621912E2,2.2255371E1,1.1116699E1,5.6933594E-1,0E0,0E0,0E0,0E0,0E0,0E0,0E0,0E0],"parents":[2147483647,0,0,1,1,2,2,3,3,4,4,5,5,6,6],"right_children":[2,4,6,8,10,12,14,-1,-1,-1,-1,-1,-1,-1,-1],"split_conditions":[5.5823162E1,1.0672259E2,6.776896E1,6.8237305E-1,1.2887242E2,6.2443687E1,7.513919E1,-1.1846091E-2,-6.3418704E-3,-1.2871009E-2,-1.5155756E-2,-1.2975077E-2,-1.5206005E-2,-1.5286215E-2,-1.5678722E-2],"split_indices":[6,12,6,15,12,7,6,0,0,0,0,0,0,0,0],"split_type":[0,0,0,0,0,0,0,0,0,0,0,0,0,0,0],"sum_hessian":[8.343477E4,3.2126803E4,5.1307973E4,1.6509146E4,1.5617656E4,1.0001254E4,4.130672E4,9.391143E3,7.1180034E3,7.128166E3,8.48949E3,2.8837969E3,7.1174565E3,5.692471E3,3.561425E4],"tree_param":{"num_deleted":"0","num_feature":"16","num_nodes":"15","size_leaf_vector":"0"}},{"base_weights":[-4.6205544E-1,-3.7725744E-1,-5.0602806E-1,-3.0305156E-1,-4.654343E-1,-4.666281E-1,-5.166423E-1,-2.0044343E-1,-3.9601398E-1,-4.791581E-1,-3.7273297E-1,-4.1595668E-1,-5.013596E-1,-5.034762E-1,-5.195201E-1],"categories":[],"categories_nodes":[],"categories_segments":[],"categories_sizes":[],"default_left":[true,true,true,true,true,true,true,false,false,false,false,false,false,false,false],"id":59,"left_children":[1,3,5,7,9,11,13,-1,-1,-1,-1,-1,-1,-1,-1],"loss_changes":[3.0466406E2,1.8256201E2,2.2273438E1,1.4457715E2,1.605249E1,1.9916992E1,1.3457031E0,0E0,0E0,0E0,0E0,0E0,0E0,0E0,0E0],"parents":[2147483647,0,0,1,1,2,2,3,3,4,4,5,5,6,6],"right_children":[2,4,6,8,10,12,14,-1,-1,-1,-1,-1,-1,-1,-1],"split_conditions":[5.148365E1,8.371506E1,6.510522E1,4.9746662E1,8.5375977E-1,7.3384705E1,7.514097E1,-6.0133026E-3,-1.1880419E-2,-1.4374743E-2,-1.1181989E-2,-1.24787E-2,-1.5040787E-2,-1.5104285E-2,-1.5585603E-2],"split_indices":[6,7,6,8,15,7,6,0,0,0,0,0,0,0,0],"split_type":[0,0,0,0,0,0,0,0,0,0,0,0,0,0,0],"sum_hessian":[8.175613E4,2.7921355E4,5.3834773E4,1.5164228E4,1.2757129E4,1.1434599E4,4.2400176E4,7.2096577E3,7.95457E3,1.1108436E4,1.6486929E3,4.655477E3,6.7791216E3,7.637006E3,3.4763168E4],"tree_param":{"num_deleted":"0","num_feature":"16","num_nodes":"15","size_leaf_vector":"0"}},{"base_weights":[-4.5756283E-1,-3.7946668E-1,-5.0725913E-1,-3.0300233E-1,-4.614563E-1,-4.7712657E-1,-5.145837E-1,-2.0942792E-1,-3.9376968E-1,-4.184799E-1,-4.9776986E-1,-4.218541E-1,-4.996654E-1,-5.026092E-1,-5.1648736E-1],"categories":[],"categories_nodes":[],"categories_segments":[],"categories_sizes":[],"default_left":[true,true,true,true,true,true,true,false,false,false,false,false,false,false,false],"id":60,"left_children":[1,3,5,7,9,11,13,-1,-1,-1,-1,-1,-1,-1,-1],"loss_changes":[3.1071875E2,1.9519385E2,1.0558594E1,1.3687317E2,2.3253418E1,1.1731445E1,6.386719E-1,0E0,0E0,0E0,0E0,0E0,0E0,0E0,0E0],"parents":[2147483647,0,0,1,1,2,2,3,3,4,4,5,5,6,6],"right_children":[2,4,6,8,10,12,14,-1,-1,-1,-1,-1,-1,-1,-1],"split_conditions":[5.5823162E1,1.0672259E2,6.776933E1,5.2304665E1,1.2887242E2,6.2443687E1,7.514125E1,-6.2828376E-3,-1.181309E-2,-1.2554396E-2,-1.4933095E-2,-1.2655623E-2,-1.4989962E-2,-1.5078275E-2,-1.549462E-2],"split_indices":[6,12,6,8,12,7,6,0,0,0,0,0,0,0,0],"split_type":[0,0,0,0,0,0,0,0,0,0,0,0,0,0,0],"sum_hessian":[8.010864E4,3.1156238E4,4.8952402E4,1.6123755E4,1.5032484E4,9.585352E3,3.936705E4,7.940744E3,8.1830107E3,6.890377E3,8.142107E3,2.7822056E3,6.803146E3,5.436349E3,3.3930703E4],"tree_param":{"num_deleted":"0","num_feature":"16","num_nodes":"15","size_leaf_vector":"0"}},{"base_weights":[-4.5310313E-1,-3.7379763E-1,-5.04E-1,-3.0071136E-1,-4.6111998E-1,-4.729887E-1,-5.1155937E-1,-3.560619E-1,-1.371249E-1,-4.743358E-1,-3.7145633E-1,-4.1661033E-1,-4.9610087E-1,-4.9921367E-1,-5.1352346E-1],"categories":[],"categories_nodes":[],"categories_segments":[],"categories_sizes":[],"default_left":[true,true,true,true,true,true,true,false,false,false,false,false,false,false,false],"id":61,"left_children":[1,3,5,7,9,11,13,-1,-1,-1,-1,-1,-1,-1,-1],"loss_changes":[3.1665723E2,1.9571973E2,1.096582E1,1.5124573E2,1.639087E1,1.202002E1,6.7578125E-1,0E0,0E0,0E0,0E0,0E0,0E0,0E0,0E0],"parents":[2147483647,0,0,1,1,2,2,3,3,4,4,5,5,6,6],"right_children":[2,4,6,8,10,12,14,-1,-1,-1,-1,-1,-1,-1,-1],"split_conditions":[5.5823162E1,8.371506E1,6.776933E1,7.800293E-1,8.5375977E-1,6.2443687E1,7.513938E1,-1.0681857E-2,-4.113747E-3,-1.4230073E-2,-1.1143689E-2,-1.249831E-2,-1.4883026E-2,-1.4976409E-2,-1.5405703E-2],"split_indices":[6,7,6,15,15,7,6,0,0,0,0,0,0,0,0],"split_type":[0,0,0,0,0,0,0,0,0,0,0,0,0,0,0],"sum_hessian":[7.849624E4,3.0687912E4,4.780833E4,1.6708133E4,1.3979779E4,9.382272E3,3.8426055E4,1.2483188E4,4.2249453E3,1.2180209E4,1.79957E3,2.7334626E3,6.64881E3,5.3091646E3,3.311689E4],"tree_param":{"num_deleted":"0","num_feature":"16","num_nodes":"15","size_leaf_vector":"0"}},{"base_weights":[-4.486754E-1,-3.5434264E-1,-4.9321115E-1,-2.796577E-1,-4.510066E-1,-4.4815138E-1,-5.071542E-1,-1.9230115E-1,-3.9367327E-1,-4.661791E-1,-3.4816474E-1,-3.8757023E-1,-4.8921505E-1,-4.9227706E-1,-5.106261E-1],"categories":[],"categories_nodes":[],"categories_segments":[],"categories_sizes":[],"default_left":[true,true,true,true,true,true,true,false,false,false,false,false,false,false,false],"id":62,"left_children":[1,3,5,7,9,11,13,-1,-1,-1,-1,-1,-1,-1,-1],"loss_changes":[3.2297754E2,1.7798901E2,3.2597656E1,1.3857678E2,1.6614746E1,3.054712E1,1.8105469E0,0E0,0E0,0E0,0E0,0E0,0E0,0E0,0E0],"parents":[2147483647,0,0,1,1,2,2,3,3,4,4,5,5,6,6],"right_children":[2,4,6,8,10,12,14,-1,-1,-1,-1,-1,-1,-1,-1],"split_conditions":[4.9051773E1,8.517081E1,6.4490456E1,5.548666E1,8.557129E-1,7.223386E1,7.513962E1,-5.7690344E-3,-1.18101975E-2,-1.3985373E-2,-1.0444942E-2,-1.1627107E-2,-1.4676451E-2,-1.4768312E-2,-1.5318782E-2],"split_indices":[6,7,6,8,15,7,6,0,0,0,0,0,0,0,0],"split_type":[0,0,0,0,0,0,0,0,0,0,0,0,0,0,0],"sum_hessian":[7.691829E4,2.467092E4,5.2247363E4,1.3919933E4,1.0750988E4,1.2354482E4,3.9892883E4,7.882895E3,6.0370376E3,9.36571E3,1.3852777E3,4.995325E3,7.3591567E3,7.5752944E3,3.2317588E4],"tree_param":{"num_deleted":"0","num_feature":"16","num_nodes":"15","size_leaf_vector":"0"}},{"base_weights":[-4.4430062E-1,-3.6256447E-1,-4.9767187E-1,-2.937859E-1,-4.6129775E-1,-4.6491492E-1,-5.0570595E-1,-3.641089E-1,-1.7079265E-1,-4.8316637E-1,-3.990426E-1,-4.0622935E-1,-4.89223E-1,-4.9261782E-1,-5.0779325E-1],"categories":[],"categories_nodes":[],"categories_segments":[],"categories_sizes":[],"default_left":[true,true,true,true,true,true,true,false,false,false,false,false,false,false,false],"id":63,"left_children":[1,3,5,7,9,11,13,-1,-1,-1,-1,-1,-1,-1,-1],"loss_changes":[3.2861816E2,2.0207617E2,1.1764648E1,1.5176648E2,1.6450195E1,1.2629517E1,7.5E-1,0E0,0E0,0E0,0E0,0E0,0E0,0E0,0E0],"parents":[2147483647,0,0,1,1,2,2,3,3,4,4,5,5,6,6],"right_children":[2,4,6,8,10,12,14,-1,-1,-1,-1,-1,-1,-1,-1],"split_conditions":[5.5823162E1,1.1257789E2,6.776896E1,7.199707E-1,2.7551093E0,6.2443687E1,7.513872E1,-1.0923266E-2,-5.1237796E-3,-1.4494991E-2,-1.1971278E-2,-1.218688E-2,-1.467669E-2,-1.4778534E-2,-1.5233797E-2],"split_indices":[6,12,6,15,3,7,6,0,0,0,0,0,0,0,0],"split_type":[0,0,0,0,0,0,0,0,0,0,0,0,0,0,0],"sum_hessian":[7.537054E4,2.977657E4,4.559397E4,1.7552969E4,1.2223602E4,8.991669E3,3.6602297E4,1.1166445E4,6.3865225E3,9.040978E3,3.1826243E3,2.6387651E3,6.352904E3,5.0670405E3,3.1535258E4],"tree_param":{"num_deleted":"0","num_feature":"16","num_nodes":"15","size_leaf_vector":"0"}},{"base_weights":[-4.3993887E-1,-3.5701346E-1,-4.9458116E-1,-2.8808737E-1,-4.5695147E-1,-4.608907E-1,-5.028695E-1,-1.7733237E-1,-3.6577693E-1,-4.83989E-1,-4.0463898E-1,-4.0108046E-1,-4.8580623E-1,-4.893854E-1,-5.050228E-1],"categories":[],"categories_nodes":[],"categories_segments":[],"categories_sizes":[],"default_left":[true,true,true,true,true,true,true,false,false,false,false,false,false,false,false],"id":64,"left_children":[1,3,5,7,9,11,13,-1,-1,-1,-1,-1,-1,-1,-1],"loss_changes":[3.345E2,2.0197876E2,1.2200195E1,1.4937317E2,1.6740967E1,1.2921875E1,7.9003906E-1,0E0,0E0,0E0,0E0,0E0,0E0,0E0,0E0],"parents":[2147483647,0,0,1,1,2,2,3,3,4,4,5,5,6,6],"right_children":[2,4,6,8,10,12,14,-1,-1,-1,-1,-1,-1,-1,-1],"split_conditions":[5.5823162E1,1.1257789E2,6.776896E1,4.6740982E1,2.5610418E0,6.2443687E1,7.5139854E1,-5.319971E-3,-1.0973307E-2,-1.451967E-2,-1.2139169E-2,-1.2032414E-2,-1.4574187E-2,-1.4681562E-2,-1.5150684E-2],"split_indices":[6,12,6,8,3,7,6,0,0,0,0,0,0,0,0],"split_type":[0,0,0,0,0,0,0,0,0,0,0,0,0,0,0],"sum_hessian":[7.385888E4,2.933995E4,4.4518938E4,1.7366416E4,1.1973533E4,8.801029E3,3.5717906E4,7.1609624E3,1.0205453E4,7.8882607E3,4.085273E3,2.5931682E3,6.207861E3,4.9499165E3,3.076799E4],"tree_param":{"num_deleted":"0","num_feature":"16","num_nodes":"15","size_leaf_vector":"0"}},{"base_weights":[-4.3561587E-1,-3.28147E-1,-4.7938538E-1,-2.4992684E-1,-4.33022E-1,-4.2988792E-1,-4.9851742E-1,-1.8216804E-1,-4.146594E-1,-4.5052645E-1,-3.160564E-1,-3.548218E-1,-4.7237146E-1,-4.823303E-1,-5.023128E-1],"categories":[],"categories_nodes":[],"categories_segments":[],"categories_sizes":[],"default_left":[true,true,true,true,true,true,true,false,false,false,false,false,false,false,false],"id":65,"left_children":[1,3,5,7,9,11,13,-1,-1,-1,-1,-1,-1,-1,-1],"loss_changes":[3.403047E2,1.717539E2,4.8489258E1,1.3389691E2,1.8179688E1,4.557837E1,2.0371094E0,0E0,0E0,0E0,0E0,0E0,0E0,0E0,0E0],"parents":[2147483647,0,0,1,1,2,2,3,3,4,4,5,5,6,6],"right_children":[2,4,6,8,10,12,14,-1,-1,-1,-1,-1,-1,-1,-1],"split_conditions":[4.5702858E1,8.5341385E1,6.4490456E1,8.0012E1,8.557129E-1,6.726985E1,7.5139854E1,-5.465041E-3,-1.2439782E-2,-1.3515793E-2,-9.481692E-3,-1.0644654E-2,-1.4171143E-2,-1.4469909E-2,-1.5069383E-2],"split_indices":[6,7,6,0,15,7,6,0,0,0,0,0,0,0,0],"split_type":[0,0,0,0,0,0,0,0,0,0,0,0,0,0,0],"sum_hessian":[7.237829E4,2.094927E4,5.1429023E4,1.2001462E4,8.947808E3,1.434358E4,3.708544E4,8.50517E3,3.4962917E3,7.7805586E3,1.1672488E3,5.187282E3,9.156298E3,7.0681235E3,3.001732E4],"tree_param":{"num_deleted":"0","num_feature":"16","num_nodes":"15","size_leaf_vector":"0"}},{"base_weights":[-4.3133152E-1,-3.460293E-1,-4.8857623E-1,-2.764471E-1,-4.4870952E-1,-4.5306602E-1,-4.9737313E-1,-3.6011696E-1,-1.681888E-1,-4.7700572E-1,-3.9430743E-1,-3.910367E-1,-4.7920388E-1,-4.8307872E-1,-4.996616E-1],"categories":[],"categories_nodes":[],"categories_segments":[],"categories_sizes":[],"default_left":[true,true,true,true,true,true,true,false,false,false,false,false,false,false,false],"id":66,"left_children":[1,3,5,7,9,11,13,-1,-1,-1,-1,-1,-1,-1,-1],"loss_changes":[3.4618555E2,2.0341113E2,1.3033203E1,1.5377173E2,1.7523193E1,1.3493164E1,8.7109375E-1,0E0,0E0,0E0,0E0,0E0,0E0,0E0,0E0],"parents":[2147483647,0,0,1,1,2,2,3,3,4,4,5,5,6,6],"right_children":[2,4,6,8,10,12,14,-1,-1,-1,-1,-1,-1,-1,-1],"split_conditions":[5.5823162E1,1.1257789E2,6.776974E1,6.8237305E-1,2.5610418E0,6.2443687E1,7.513938E1,-1.0803509E-2,-5.0456636E-3,-1.4310171E-2,-1.1829223E-2,-1.17311E-2,-1.4376116E-2,-1.4492361E-2,-1.4989847E-2],"split_indices":[6,12,6,15,3,7,6,0,0,0,0,0,0,0,0],"split_type":[0,0,0,0,0,0,0,0,0,0,0,0,0,0,0],"sum_hessian":[7.092811E4,2.84865E4,4.2441605E4,1.6982105E4,1.1504395E4,8.436925E3,3.4004684E4,9.57755E3,7.404555E3,7.562918E3,3.941477E3,2.505924E3,5.9310005E3,4.7219736E3,2.9282709E4],"tree_param":{"num_deleted":"0","num_feature":"16","num_nodes":"15","size_leaf_vector":"0"}},{"base_weights":[-4.2705852E-1,-3.406095E-1,-4.8563442E-1,-2.66284E-1,-4.3894318E-1,-4.491322E-1,-4.947065E-1,-3.539332E-1,-1.532801E-1,-4.5580173E-1,-3.5773835E-1,-3.8596973E-1,-4.759123E-1,-4.7998223E-1,-4.9706715E-1],"categories":[],"categories_nodes":[],"categories_segments":[],"categories_sizes":[],"default_left":[true,true,true,true,true,true,true,false,false,false,false,false,false,false,false],"id":67,"left_children":[1,3,5,7,9,11,13,-1,-1,-1,-1,-1,-1,-1,-1],"loss_changes":[3.5183594E2,2.051101E2,1.3499023E1,1.5836829E2,1.6382568E1,1.3786011E1,9.1503906E-1,0E0,0E0,0E0,0E0,0E0,0E0,0E0,0E0],"parents":[2147483647,0,0,1,1,2,2,3,3,4,4,5,5,6,6],"right_children":[2,4,6,8,10,12,14,-1,-1,-1,-1,-1,-1,-1,-1],"split_conditions":[5.5823162E1,8.517081E1,6.776896E1,2.5386302E0,8.2250977E-1,6.2443687E1,7.513962E1,-1.0617996E-2,-4.598403E-3,-1.36740515E-2,-1.073215E-2,-1.1579092E-2,-1.4277369E-2,-1.4399466E-2,-1.4912014E-2],"split_indices":[6,7,6,3,15,7,6,0,0,0,0,0,0,0,0],"split_type":[0,0,0,0,0,0,0,0,0,0,0,0,0,0,0],"sum_hessian":[6.951195E4,2.8078799E4,4.1433156E4,1.5993683E4,1.2085117E4,8.257792E3,3.3175363E4,9.006128E3,6.9875547E3,1.0003686E4,2.0814314E3,2.4633188E3,5.794473E3,4.6121387E3,2.8563225E4],"tree_param":{"num_deleted":"0","num_feature":"16","num_nodes":"15","size_leaf_vector":"0"}},{"base_weights":[-4.228107E-1,-3.3128223E-1,-4.8017383E-1,-2.3920728E-1,-4.1439432E-1,-4.3395132E-1,-4.9077296E-1,-3.2512668E-1,-9.930458E-2,-3.6038437E-1,-4.5774466E-1,-3.8830844E-1,-4.8227608E-1,-4.738216E-1,-4.9452788E-1],"categories":[],"categories_nodes":[],"categories_segments":[],"categories_sizes":[],"default_left":[true,true,true,true,true,true,true,false,false,false,false,false,false,false,false],"id":68,"left_children":[1,3,5,7,9,11,13,-1,-1,-1,-1,-1,-1,-1,-1],"loss_changes":[3.5753613E2,2.007854E2,2.0304688E1,1.4969562E2,3.213501E1,1.706189E1,1.9335938E0,0E0,0E0,0E0,0E0,0E0,0E0,0E0,0E0],"parents":[2147483647,0,0,1,1,2,2,3,3,4,4,5,5,6,6],"right_children":[2,4,6,8,10,12,14,-1,-1,-1,-1,-1,-1,-1,-1],"split_conditions":[5.382254E1,7.524016E1,6.510522E1,2.6906433E0,1.0105504E2,8.376511E1,7.514016E1,-9.7538E-3,-2.9791372E-3,-1.0811531E-2,-1.3732339E-2,-1.1649253E-2,-1.4468282E-2,-1.4214648E-2,-1.4835836E-2],"split_indices":[6,7,6,3,7,7,6,0,0,0,0,0,0,0,0],"split_type":[0,0,0,0,0,0,0,0,0,0,0,0,0,0,0],"sum_hessian":[6.812685E4,2.6249688E4,4.187716E4,1.2455195E4,1.3794493E4,7.81932E3,3.405784E4,7.715499E3,4.739696E3,6.146242E3,7.648251E3,4.0258904E3,3.7934292E3,6.1991636E3,2.7858678E4],"tree_param":{"num_deleted":"0","num_feature":"16","num_nodes":"15","size_leaf_vector":"0"}},{"base_weights":[-4.185972E-1,-3.2989722E-1,-4.7989157E-1,-2.5875604E-1,-4.3732673E-1,-4.4137093E-1,-4.8953274E-1,-1.6971552E-1,-3.6582634E-1,-4.6192965E-1,-3.6903667E-1,-3.7561554E-1,-4.695541E-1,-4.7392455E-1,-4.920421E-1],"categories":[],"categories_nodes":[],"categories_segments":[],"categories_sizes":[],"default_left":[true,true,true,true,true,true,true,false,false,false,false,false,false,false,false],"id":69,"left_children":[1,3,5,7,9,11,13,-1,-1,-1,-1,-1,-1,-1,-1],"loss_changes":[3.628672E2,2.08448E2,1.4447266E1,1.5647742E2,1.8093018E1,1.448999E1,1.003418E0,0E0,0E0,0E0,0E0,0E0,0E0,0E0,0E0],"parents":[2147483647,0,0,1,1,2,2,3,3,4,4,5,5,6,6],"right_children":[2,4,6,8,10,12,14,-1,-1,-1,-1,-1,-1,-1,-1],"split_conditions":[5.5823162E1,1.1257789E2,6.776896E1,5.567028E1,2.7551093E0,6.2443687E1,7.513919E1,-5.0914655E-3,-1.097479E-2,-1.3857889E-2,-1.10711E-2,-1.1268466E-2,-1.4086623E-2,-1.4217736E-2,-1.4761263E-2],"split_indices":[6,12,6,8,3,7,6,0,0,0,0,0,0,0,0],"split_type":[0,0,0,0,0,0,0,0,0,0,0,0,0,0,0],"sum_hessian":[6.677068E4,2.728809E4,3.9482586E4,1.6418773E4,1.0869316E4,7.913091E3,3.1569494E4,8.965543E3,7.4532305E3,7.9863135E3,2.8830032E3,2.3783604E3,5.5347305E3,4.3988193E3,2.7170676E4],"tree_param":{"num_deleted":"0","num_feature":"16","num_nodes":"15","size_leaf_vector":"0"}},{"base_weights":[-4.1440913E-1,-3.091808E-1,-4.6788085E-1,-2.3137808E-1,-4.169034E-1,-4.154738E-1,-4.8562112E-1,-1.4044474E-1,-3.547891E-1,-4.346929E-1,-3.0026293E-1,-3.480173E-1,-4.6338803E-1,-4.6768105E-1,-4.8960823E-1],"categories":[],"categories_nodes":[],"categories_segments":[],"categories_sizes":[],"default_left":[true,true,true,true,true,true,true,false,false,false,false,false,false,false,false],"id":70,"left_children":[1,3,5,7,9,11,13,-1,-1,-1,-1,-1,-1,-1,-1],"loss_changes":[3.6809863E2,1.8473853E2,4.0140625E1,1.4367761E2,1.9057373E1,3.5330322E1,2.0898438E0,0E0,0E0,0E0,0E0,0E0,0E0,0E0,0E0],"parents":[2147483647,0,0,1,1,2,2,3,3,4,4,5,5,6,6],"right_children":[2,4,6,8,10,12,14,-1,-1,-1,-1,-1,-1,-1,-1],"split_conditions":[4.9051773E1,8.517081E1,6.510522E1,5.548666E1,8.557129E-1,7.223386E1,7.513962E1,-4.213342E-3,-1.0643673E-2,-1.3040787E-2,-9.007888E-3,-1.0440519E-2,-1.3901641E-2,-1.4030431E-2,-1.4688247E-2],"split_indices":[6,7,6,8,15,7,6,0,0,0,0,0,0,0,0],"split_type":[0,0,0,0,0,0,0,0,0,0,0,0,0,0,0],"sum_hessian":[6.5444168E4,2.2052766E4,4.3391402E4,1.2806446E4,9.246319E3,1.0979875E4,3.2411527E4,7.3746777E3,5.431769E3,8.020362E3,1.2259573E3,4.5634478E3,6.4164272E3,5.915037E3,2.649649E4],"tree_param":{"num_deleted":"0","num_feature":"16","num_nodes":"15","size_leaf_vector":"0"}},{"base_weights":[-4.102546E-1,-3.193724E-1,-4.7432986E-1,-2.4759516E-1,-4.2962155E-1,-4.33782E-1,-4.8455745E-1,-3.3577618E-1,-1.3539456E-1,-4.614961E-1,-3.72719E-1,-3.6567864E-1,-4.6333432E-1,-4.6801624E-1,-4.872247E-1],"categories":[],"categories_nodes":[],"categories_segments":[],"categories_sizes":[],"default_left":[true,true,true,true,true,true,true,false,false,false,false,false,false,false,false],"id":71,"left_children":[1,3,5,7,9,11,13,-1,-1,-1,-1,-1,-1,-1,-1],"loss_changes":[3.7339258E2,2.0981787E2,1.5390625E1,1.589466E2,1.8798218E1,1.5100708E1,1.097168E0,0E0,0E0,0E0,0E0,0E0,0E0,0E0,0E0],"parents":[2147483647,0,0,1,1,2,2,3,3,4,4,5,5,6,6],"right_children":[2,4,6,8,10,12,14,-1,-1,-1,-1,-1,-1,-1,-1],"split_conditions":[5.5823162E1,1.1257789E2,6.776903E1,6.8237305E-1,2.5314908E0,6.2443687E1,7.513872E1,-1.0073286E-2,-4.0618367E-3,-1.3844883E-2,-1.118157E-2,-1.0970359E-2,-1.39000295E-2,-1.4040487E-2,-1.4616741E-2],"split_indices":[6,12,6,15,3,7,6,0,0,0,0,0,0,0,0],"split_type":[0,0,0,0,0,0,0,0,0,0,0,0,0,0,0],"sum_hessian":[6.4145375E4,2.6526736E4,3.761864E4,1.6068594E4,1.0458143E4,7.5861787E3,3.003246E4,8.996245E3,7.072348E3,6.6986895E3,3.7594534E3,2.2997585E3,5.2864204E3,4.1947715E3,2.583769E4],"tree_param":{"num_deleted":"0","num_feature":"16","num_nodes":"15","size_leaf_vector":"0"}},{"base_weights":[-4.0609708E-1,-3.141663E-1,-4.715983E-1,-2.3179567E-1,-4.1106144E-1,-4.2996696E-1,-4.8213917E-1,-2.9318535E-1,-6.709353E-2,-3.5783708E-1,-4.5812973E-1,-3.607324E-1,-4.602149E-1,-4.6510375E-1,-4.8489022E-1],"categories":[],"categories_nodes":[],"categories_segments":[],"categories_sizes":[],"default_left":[true,true,true,true,true,true,true,false,false,false,false,false,false,false,false],"id":72,"left_children":[1,3,5,7,9,11,13,-1,-1,-1,-1,-1,-1,-1,-1],"loss_changes":[3.7849023E2,2.0873535E2,1.5905273E1,1.4299811E2,2.9951294E1,1.5388428E1,1.1474609E0,0E0,0E0,0E0,0E0,0E0,0E0,0E0,0E0],"parents":[2147483647,0,0,1,1,2,2,3,3,4,4,5,5,6,6],"right_children":[2,4,6,8,10,12,14,-1,-1,-1,-1,-1,-1,-1,-1],"split_conditions":[5.5823162E1,1.0672259E2,6.776903E1,7.7856445E-1,1.2887242E2,6.2443687E1,7.513872E1,-8.79556E-3,-2.0128058E-3,-1.0735112E-2,-1.3743891E-2,-1.0821972E-2,-1.3806447E-2,-1.3953112E-2,-1.4546706E-2],"split_indices":[6,12,6,15,12,7,6,0,0,0,0,0,0,0,0],"split_type":[0,0,0,0,0,0,0,0,0,0,0,0,0,0,0],"sum_hessian":[6.2879227E4,2.6163965E4,3.671526E4,1.4143744E4,1.2020221E4,7.426381E3,2.9288879E4,1.0302789E4,3.840955E3,5.645242E3,6.374979E3,2.2619429E3,5.1644385E3,4.0959106E3,2.5192969E4],"tree_param":{"num_deleted":"0","num_feature":"16","num_nodes":"15","size_leaf_vector":"0"}},{"base_weights":[-4.019586E-1,-3.0900282E-1,-4.6890375E-1,-2.3258059E-1,-4.1539288E-1,-4.238231E-1,-4.792017E-1,-1.5181747E-1,-3.6800826E-1,-4.3430436E-1,-3.2633147E-1,-3.5182866E-1,-4.558566E-1,-4.6093148E-1,-4.8260337E-1],"categories":[],"categories_nodes":[],"categories_segments":[],"categories_sizes":[],"default_left":[true,true,true,true,true,true,true,false,false,false,false,false,false,false,false],"id":73,"left_children":[1,3,5,7,9,11,13,-1,-1,-1,-1,-1,-1,-1,-1],"loss_changes":[3.8345312E2,2.097583E2,1.6432129E1,1.6426031E2,1.8029175E1,1.5226929E1,1.590332E0,0E0,0E0,0E0,0E0,0E0,0E0,0E0,0E0],"parents":[2147483647,0,0,1,1,2,2,3,3,4,4,5,5,6,6],"right_children":[2,4,6,8,10,12,14,-1,-1,-1,-1,-1,-1,-1,-1],"split_conditions":[5.5823162E1,8.517081E1,6.672136E1,7.423865E1,8.2250977E-1,6.2443687E1,7.513919E1,-4.554524E-3,-1.1040247E-2,-1.302913E-2,-9.789944E-3,-1.0554859E-2,-1.3675697E-2,-1.3827944E-2,-1.44781E-2],"split_indices":[6,7,6,0,15,7,6,0,0,0,0,0,0,0,0],"split_type":[0,0,0,0,0,0,0,0,0,0,0,0,0,0,0],"sum_hessian":[6.1641613E4,2.580962E4,3.5831996E4,1.5022108E4,1.0787512E4,6.671E3,2.9160994E4,9.411577E3,5.610531E3,8.894879E3,1.8926321E3,2.0579016E3,4.613098E3,4.598597E3,2.4562396E4],"tree_param":{"num_deleted":"0","num_feature":"16","num_nodes":"15","size_leaf_vector":"0"}},{"base_weights":[-3.9784408E-1,-3.0389354E-1,-4.662446E-1,-2.2367856E-1,-4.058736E-1,-4.22384E-1,-4.7743735E-1,-3.194519E-1,-1.04818374E-1,-3.465602E-1,-4.394862E-1,-3.5085866E-1,-4.5406592E-1,-4.593817E-1,-4.803626E-1],"categories":[],"categories_nodes":[],"categories_segments":[],"categories_sizes":[],"default_left":[true,true,true,true,true,true,true,false,false,false,false,false,false,false,false],"id":74,"left_children":[1,3,5,7,9,11,13,-1,-1,-1,-1,-1,-1,-1,-1],"loss_changes":[3.882119E2,2.082107E2,1.696582E1,1.622406E2,2.2196167E1,1.5970947E1,1.2504883E0,0E0,0E0,0E0,0E0,0E0,0E0,0E0,0E0],"parents":[2147483647,0,0,1,1,2,2,3,3,4,4,5,5,6,6],"right_children":[2,4,6,8,10,12,14,-1,-1,-1,-1,-1,-1,-1,-1],"split_conditions":[5.5823162E1,8.2593475E1,6.776896E1,2.5386255E0,1.0135702E2,6.2443687E1,7.513872E1,-9.583557E-3,-3.144551E-3,-1.03968065E-2,-1.3184586E-2,-1.0525759E-2,-1.36219775E-2,-1.3781451E-2,-1.4410878E-2],"split_indices":[6,7,6,3,7,7,6,0,0,0,0,0,0,0,0],"split_type":[0,0,0,0,0,0,0,0,0,0,0,0,0,0,0],"sum_hessian":[6.04312E4,2.546271E4,3.496849E4,1.4254033E4,1.1208679E4,7.117209E3,2.785128E4,7.8926914E3,6.3613413E3,4.0584246E3,7.150254E3,2.188502E3,4.928707E3,3.905174E3,2.3946105E4],"tree_param":{"num_deleted":"0","num_feature":"16","num_nodes":"15","size_leaf_vector":"0"}},{"base_weights":[-3.9374015E-1,-2.8885815E-1,-4.5700535E-1,-2.1605836E-1,-4.0936613E-1,-4.0030333E-1,-4.735434E-1,-1.2255228E-1,-3.3369488E-1,-4.3877828E-1,-3.2923937E-1,-3.3731872E-1,-4.5250654E-1,-4.5294243E-1,-4.7816664E-1],"categories":[],"categories_nodes":[],"categories_segments":[],"categories_sizes":[],"default_left":[true,true,true,true,true,true,true,false,false,false,false,false,false,false,false],"id":75,"left_children":[1,3,5,7,9,11,13,-1,-1,-1,-1,-1,-1,-1,-1],"loss_changes":[3.9301562E2,1.9550989E2,3.4465332E1,1.5286829E2,1.9640991E1,2.7306519E1,2.5083008E0,0E0,0E0,0E0,0E0,0E0,0E0,0E0,0E0],"parents":[2147483647,0,0,1,1,2,2,3,3,4,4,5,5,6,6],"right_children":[2,4,6,8,10,12,14,-1,-1,-1,-1,-1,-1,-1,-1],"split_conditions":[5.148365E1,1.1257789E2,6.510522E1,5.567028E1,2.7551093E0,7.5826965E1,7.513872E1,-3.6765684E-3,-1.0010846E-2,-1.3163348E-2,-9.877181E-3,-1.0119561E-2,-1.3575196E-2,-1.3588273E-2,-1.4344999E-2],"split_indices":[6,12,6,8,3,7,6,0,0,0,0,0,0,0,0],"split_type":[0,0,0,0,0,0,0,0,0,0,0,0,0,0,0],"sum_hessian":[5.924929E4,2.229458E4,3.695471E4,1.3900172E4,8.394407E3,8.350296E3,2.8604414E4,7.745515E3,6.154657E3,6.137164E3,2.257244E3,3.7877417E3,4.562554E3,5.2609033E3,2.334351E4],"tree_param":{"num_deleted":"0","num_feature":"16","num_nodes":"15","size_leaf_vector":"0"}},{"base_weights":[-3.8966858E-1,-2.9377562E-1,-4.610383E-1,-2.214476E-1,-4.1028386E-1,-4.149318E-1,-4.729061E-1,-3.125062E-1,-1.07942544E-1,-4.4855073E-1,-3.5299367E-1,-3.3295214E-1,-4.4489285E-1,-4.5378798E-1,-4.7601444E-1],"categories":[],"categories_nodes":[],"categories_segments":[],"categories_sizes":[],"default_left":[true,true,true,true,true,true,true,false,false,false,false,false,false,false,false],"id":76,"left_children":[1,3,5,7,9,11,13,-1,-1,-1,-1,-1,-1,-1,-1],"loss_changes":[3.9744434E2,2.0881494E2,1.8026855E1,1.580752E2,2.0655762E1,1.6617065E1,1.3579102E0,0E0,0E0,0E0,0E0,0E0,0E0,0E0,0E0],"parents":[2147483647,0,0,1,1,2,2,3,3,4,4,5,5,6,6],"right_children":[2,4,6,8,10,12,14,-1,-1,-1,-1,-1,-1,-1,-1],"split_conditions":[5.5823162E1,1.1257789E2,6.776896E1,6.8237305E-1,2.443381E0,5.832479E1,7.513919E1,-9.375186E-3,-3.2382763E-3,-1.3456522E-2,-1.058981E-2,-9.988564E-3,-1.3346786E-2,-1.3613639E-2,-1.4280433E-2],"split_indices":[6,12,6,15,3,7,6,0,0,0,0,0,0,0,0],"split_type":[0,0,0,0,0,0,0,0,0,0,0,0,0,0,0],"sum_hessian":[5.8092047E4,2.4789607E4,3.3302438E4,1.529649E4,9.493117E3,6.824648E3,2.6477791E4,8.486502E3,6.8099883E3,5.6874023E3,3.805715E3,1.8298667E3,4.9947812E3,3.7234243E3,2.2754367E4],"tree_param":{"num_deleted":"0","num_feature":"16","num_nodes":"15","size_leaf_vector":"0"}},{"base_weights":[-3.8559264E-1,-2.8878123E-1,-4.5847502E-1,-2.1776414E-1,-4.0968657E-1,-4.1118973E-1,-4.7069925E-1,-9.96502E-2,-3.1071126E-1,-4.253445E-1,-3.0755952E-1,-3.3602467E-1,-4.451598E-1,-4.510208E-1,-4.7390452E-1],"categories":[],"categories_nodes":[],"categories_segments":[],"categories_sizes":[],"default_left":[true,true,true,true,true,true,true,false,false,false,